{"learner":{"attributes":{"best_iteration":"44","best_score":"1.4275586128234863","scikit_learn":"{\"_estimator_type\": \"regressor\"}"},"feature_names":[],"feature_types":[],"gradient_booster":{"model":{"cats":{"enc":[],"feature_segments":[],"sorted_idx":[]},"gbtree_model_param":{"num_parallel_tree":"1","num_trees":"65"},"iteration_indptr":[0,1,2,3,4,5,6,7,8,9,10,11,12,13,14,15,16,17,18,19,20,21,22,23,24,25,26,27,28,29,30,31,32,33,34,35,36,37,38,39,40,41,42,43,44,45,46,47,48,49,50,51,52,53,54,55,56,57,58,59,60,61,62,63,64,65],"tree_info":[0,0,0,0,0,0,0,0,0,0,0,0,0,0,0,0,0,0,0,0,0,0,0,0,0,0,0,0,0,0,0,0,0,0,0,0,0,0,0,0,0,0,0,0,0,0,0,0,0,0,0,0,0,0,0,0,0,0,0,0,0,0,0,0,0],"trees":[{"base_weights":[1.3666409E-1,-8.67358E-1,4.646254E1,-1.3453462E1,8.915715E-1,7.742356E1,1.3552672E1,-4.530748E1,-1.0395464E1,-2.8216463E-1,1.2786521E1,2.0039772E1,1.1170777E1,2.3148502E1,9.239329E-1,-1.4941019E0,-5.7385235E0,-5.529354E-1,-2.3611934E0,-1.599794E-1,1.0371187E-1,1.5674044E0,4.2470762E-1,1.18500695E-1,3.1997344E0,4.6765834E-1,3.062032E0,-8.3767906E-2,1.979769E-1],"categories":[],"categories_nodes":[],"categories_segments":[],"categories_sizes":[],"default_left":[0,0,0,0,0,0,0,0,0,0,0,0,0,0,0,0,0,0,0,0,0,0,0,0,0,0,0,0,0],"id":0,"left_children":[1,3,5,7,9,11,13,15,17,19,21,23,-1,25,27,-1,-1,-1,-1,-1,-1,-1,-1,-1,-1,-1,-1,-1,-1],"loss_changes":[2.7847896E4,1.2988338E4,1.189185E4,6.5360723E3,7.196883E3,1.9806371E4,8.715908E2,2.8847031E3,4.254133E3,1.276705E3,2.2520952E3,1.5931063E3,0E0,8.6132104E2,1.5500005E1,0E0,0E0,0E0,0E0,0E0,0E0,0E0,0E0,0E0,0E0,0E0,0E0,0E0,0E0],"parents":[2147483647,0,0,1,1,2,2,3,3,4,4,5,5,6,6,7,7,8,8,9,9,10,10,11,11,13,13,14,14],"right_children":[2,4,6,8,10,12,14,16,18,20,22,24,-1,26,28,-1,-1,-1,-1,-1,-1,-1,-1,-1,-1,-1,-1,-1,-1],"split_conditions":[1.3246938E1,-1.0478258E0,2.6915457E1,2.8131945E0,6.231825E0,2.9649994E-1,1.6951092E0,1.4239846E-1,3.3990204E-1,2.1965427E0,2.7021973E1,2.0463075E-1,1.1170777E1,2.6184246E-1,7.1452576E-1,-1.4941019E0,-5.7385235E0,-5.529354E-1,-2.3611934E0,-1.599794E-1,1.0371187E-1,1.5674044E0,4.2470762E-1,1.18500695E-1,3.1997344E0,4.6765834E-1,3.062032E0,-8.3767906E-2,1.979769E-1],"split_indices":[80,80,65,71,80,14,10,17,55,80,65,73,0,28,19,0,0,0,0,0,0,0,0,0,0,0,0,0,0],"split_type":[0,0,0,0,0,0,0,0,0,0,0,0,0,0,0,0,0,0,0,0,0,0,0,0,0,0,0,0,0],"sum_hessian":[5.9685596E2,5.8515515E2,1.1700809E1,7.0934105E1,5.14221E2,5.331981E0,6.368828E0,5.003058E0,6.593105E1,4.6892596E2,4.529507E1,3.4613476E0,1.8706334E0,3.1456404E0,3.2231872E0,3.341826E0,1.6612319E0,5.692094E1,9.010111E0,2.244467E2,2.4447925E2,2.2864294E1,2.2430775E1,2.3501227E0,1.111225E0,2.114003E0,1.0316374E0,1.5623013E0,1.6608859E0],"tree_param":{"num_deleted":"0","num_feature":"90","num_nodes":"29","size_leaf_vector":"1"}},{"base_weights":[1.981683E-1,-1.1805274E-1,4.5485916E1,-2.010213E0,3.6169722E0,7.515214E0,7.6686697E0,-1.7323002E0,-2.0166464E1,1.8696853E0,5.940016E0,1.0185622E0,-5.96849E-2,-2.6995167E-1,-2.6108112E-2,-2.2855191E0,-4.119786E-1,2.3167811E-1,-1.1042122E-1,1.5494381E0,4.1411388E-1],"categories":[],"categories_nodes":[],"categories_segments":[],"categories_sizes":[],"default_left":[0,0,0,0,0,0,0,0,0,0,0,0,0,0,0,0,0,0,0,0,0],"id":1,"left_children":[1,3,5,7,9,11,-1,13,15,17,19,-1,-1,-1,-1,-1,-1,-1,-1,-1,-1],"loss_changes":[1.1341905E4,5.5700137E3,9.783335E3,2.6044858E3,1.0646448E3,1.9121315E2,0E0,1.1908702E3,8.3606885E2,5.1336945E2,1.0615632E3,0E0,0E0,0E0,0E0,0E0,0E0,0E0,0E0,0E0,0E0],"parents":[2147483647,0,0,1,1,2,2,3,3,4,4,5,5,7,7,8,8,9,9,10,10],"right_children":[2,4,6,8,10,12,-1,14,16,18,20,-1,-1,-1,-1,-1,-1,-1,-1,-1,-1],"split_conditions":[2.1952478E1,3.6160517E0,1.7394892E1,2.4146369E0,6.3687935E0,7.342531E-1,7.6686697E0,6.5989585E0,1.0572174E1,8.4348106E-1,5.1225104E0,1.0185622E0,-5.96849E-2,-2.6995167E-1,-2.6108112E-2,-2.2855191E0,-4.119786E-1,2.3167811E-1,-1.1042122E-1,1.5494381E0,4.1411388E-1],"split_indices":[80,80,81,46,80,5,0,71,71,46,64,0,0,0,0,0,0,0,0,0,0],"split_type":[0,0,0,0,0,0,0,0,0,0,0,0,0,0,0,0,0,0,0,0,0],"sum_hessian":[7.906056E2,7.8611395E2,4.4916363E0,5.22087E2,2.64027E2,3.216349E0,1.2752872E0,5.152949E2,6.7920675E0,1.5171716E2,1.1230984E2,1.6397274E0,1.5766217E0,2.3704044E2,2.782545E2,3.7764816E0,3.015586E0,1.15388054E2,3.63291E1,4.732006E0,1.07577835E2],"tree_param":{"num_deleted":"0","num_feature":"90","num_nodes":"21","size_leaf_vector":"1"}},{"base_weights":[1.3236235E-1,-1.0336902E0,5.754129E0,-2.7063262E0,6.0299337E-1,5.040393E0,3.8322244E0,-2.0995896E0,-6.066108E0,-3.4858565E0,1.0363665E0,9.460123E0,4.1266623E0,-3.0066347E-1,-1.0515606E-1,-1.0197623E0,-2.5861207E-1,-5.418566E-1,-1.041921E-1,-2.22989E-2,1.6328338E-1,1.3494726E0,3.3087483E-1,2.032817E-1,4.4161272E-1],"categories":[],"categories_nodes":[],"categories_segments":[],"categories_sizes":[],"default_left":[0,0,0,0,0,0,0,0,0,0,0,0,0,0,0,0,0,0,0,0,0,0,0,0,0],"id":2,"left_children":[1,3,5,7,9,11,-1,13,15,17,19,21,23,-1,-1,-1,-1,-1,-1,-1,-1,-1,-1,-1,-1],"loss_changes":[5.6370806E3,1.9516145E3,4.202428E3,7.057632E2,6.430171E2,5.5210156E2,0E0,3.858568E2,9.6938074E2,2.4102979E2,4.3265707E2,8.888523E2,2.579165E2,0E0,0E0,0E0,0E0,0E0,0E0,0E0,0E0,0E0,0E0,0E0,0E0],"parents":[2147483647,0,0,1,1,2,2,3,3,4,4,5,5,7,7,8,8,9,9,10,10,11,11,12,12],"right_children":[2,4,6,8,10,12,-1,14,16,18,20,22,24,-1,-1,-1,-1,-1,-1,-1,-1,-1,-1,-1,-1],"split_conditions":[6.162847E0,1.0968046E0,3.0089764E1,1.1021754E0,-5.7277903E-2,-2.5697583E-1,3.8322244E0,4.8502083E0,6.7595835E0,7.4858685E0,8.944706E0,8.837905E-1,1.3904546E1,-3.0066347E-1,-1.0515606E-1,-1.0197623E0,-2.5861207E-1,-5.418566E-1,-1.041921E-1,-2.22989E-2,1.6328338E-1,1.3494726E0,3.3087483E-1,2.032817E-1,4.4161272E-1],"split_indices":[80,80,80,10,21,58,0,72,72,82,72,51,72,0,0,0,0,0,0,0,0,0,0,0,0],"split_type":[0,0,0,0,0,0,0,0,0,0,0,0,0,0,0,0,0,0,0,0,0,0,0,0,0],"sum_hessian":[8.580231E2,7.113026E2,1.4672046E2,3.514643E2,3.5983832E2,1.4537823E2,1.3422153E0,2.9907907E2,5.238521E1,3.3808975E1,3.2602933E2,2.3303852E1,1.2207439E2,9.48692E1,2.0420987E2,1.4558773E1,3.7826435E1,1.2654559E1,2.1154417E1,1.415134E2,1.8451593E2,8.838021E0,1.4465831E1,5.8421207E1,6.3653183E1],"tree_param":{"num_deleted":"0","num_feature":"90","num_nodes":"25","size_leaf_vector":"1"}},{"base_weights":[7.980542E-2,-1.5075737E0,3.0411277E0,-2.787716E0,-3.8983196E-1,2.8104286E0,2.674934E0,-6.675022E-1,-3.5474281E0,-1.9057408E-1,-5.700236E0,1.4202076E0,5.0340824E0,-5.473646E-1,3.425497E-2,-7.070182E-1,-2.0870174E-1,-7.91253E-2,2.567235E-2,-1.2901391E0,-2.4409986E-1,1.5560439E-1,-2.1764995E-1,7.656639E-1,3.06318E-1],"categories":[],"categories_nodes":[],"categories_segments":[],"categories_sizes":[],"default_left":[0,0,0,0,0,0,0,0,0,0,0,0,0,0,0,0,0,0,0,0,0,0,0,0,0],"id":3,"left_children":[1,3,5,7,9,11,-1,13,15,17,19,21,23,-1,-1,-1,-1,-1,-1,-1,-1,-1,-1,-1,-1],"loss_changes":[4.3200366E3,8.5505066E2,2.1548665E3,4.4661768E2,3.3814386E2,9.801675E2,0E0,5.087307E2,9.9482837E2,1.26937836E2,2.7006705E2,4.3540988E2,6.3291797E2,0E0,0E0,0E0,0E0,0E0,0E0,0E0,0E0,0E0,0E0,0E0,0E0],"parents":[2147483647,0,0,1,1,2,2,3,3,4,4,5,5,7,7,8,8,9,9,10,10,11,11,12,12],"right_children":[2,4,6,8,10,12,-1,14,16,18,20,22,24,-1,-1,-1,-1,-1,-1,-1,-1,-1,-1,-1,-1],"split_conditions":[3.680112E0,-7.202673E-2,4.8902405E1,2.8131945E0,8.018892E-1,1.3452084E1,2.674934E0,1.4054295E-1,4.4132986E0,7.29375E0,8.485105E0,1.2718709E0,6.2972064E0,-5.473646E-1,3.425497E-2,-7.070182E-1,-2.0870174E-1,-7.91253E-2,2.567235E-2,-1.2901391E0,-2.4409986E-1,1.5560439E-1,-2.1764995E-1,7.656639E-1,3.06318E-1],"split_indices":[80,80,80,71,28,72,0,17,72,72,71,46,64,0,0,0,0,0,0,0,0,0,0,0,0],"split_type":[0,0,0,0,0,0,0,0,0,0,0,0,0,0,0,0,0,0,0,0,0,0,0,0,0],"sum_hessian":[9.1703644E2,5.9733405E2,3.197024E2,2.777429E2,3.1959113E2,3.183784E2,1.3239977E0,7.3762985E1,2.0397992E2,3.090315E2,1.0559646E1,1.9690974E2,1.2146865E2,1.032633E1,6.3436653E1,2.9470104E1,1.7450981E2,1.2029686E2,1.8873463E2,1.108533E0,9.451113E0,1.7522978E2,2.1679968E1,2.4037146E1,9.74315E1],"tree_param":{"num_deleted":"0","num_feature":"90","num_nodes":"25","size_leaf_vector":"1"}},{"base_weights":[1.1873666E-1,-1.2720811E0,2.7545912E0,-2.2012916E0,-3.4557626E-1,2.526328E0,3.0143678E0,-6.3465366E0,-1.9482989E0,-1.3129239E-1,-3.2349772E0,1.3762013E0,4.2721453E0,-1.1671635E0,-2.045129E-1,-3.7036937E-2,-1.9554242E-1,-4.7837615E-2,2.8139805E-2,-1.5104769E-1,-7.422271E-1,1.6058584E-1,-1.1430683E-1,6.431888E-1,2.66804E-1],"categories":[],"categories_nodes":[],"categories_segments":[],"categories_sizes":[],"default_left":[0,0,0,0,0,0,0,0,0,0,0,0,0,0,0,0,0,0,0,0,0,0,0,0,0],"id":4,"left_children":[1,3,5,7,9,11,-1,13,15,17,19,21,23,-1,-1,-1,-1,-1,-1,-1,-1,-1,-1,-1,-1],"loss_changes":[3.6579363E3,5.616067E2,2.6522144E3,3.2946082E2,2.0282532E2,6.837622E2,0E0,5.3461755E2,2.2624402E2,6.93365E1,1.6660457E2,3.720346E2,4.5311914E2,0E0,0E0,0E0,0E0,0E0,0E0,0E0,0E0,0E0,0E0,0E0,0E0],"parents":[2147483647,0,0,1,1,2,2,3,3,4,4,5,5,7,7,8,8,9,9,10,10,11,11,12,12],"right_children":[2,4,6,8,10,12,-1,14,16,18,20,22,24,-1,-1,-1,-1,-1,-1,-1,-1,-1,-1,-1,-1],"split_conditions":[3.680112E0,5.7967186E-2,4.0287727E1,-2.3100209E-1,9.765735E-1,1.3452084E1,3.0143678E0,5.813182E0,2.8131945E0,8.226875E0,9.867047E-1,5.4737455E-1,3.815051E-1,-1.1671635E0,-2.045129E-1,-3.7036937E-2,-1.9554242E-1,-4.7837615E-2,2.8139805E-2,-1.5104769E-1,-7.422271E-1,1.6058584E-1,-1.1430683E-1,6.431888E-1,2.66804E-1],"split_indices":[80,80,80,60,9,72,0,71,71,72,19,40,7,0,0,0,0,0,0,0,0,0,0,0,0],"split_type":[0,0,0,0,0,0,0,0,0,0,0,0,0,0,0,0,0,0,0,0,0,0,0,0,0],"sum_hessian":[9.9584644E2,6.5221844E2,3.4362793E2,3.2494684E2,3.2727164E2,3.42462E2,1.1659297E0,1.7305931E1,3.076409E2,3.056495E2,2.1622149E1,2.0753098E2,1.3493103E2,4.5534463E0,1.2752485E1,7.749541E1,2.3014548E2,1.5533667E2,1.5031282E2,1.8754456E1,2.8676918E0,1.6964575E2,3.788522E1,2.5365623E1,1.0956541E2],"tree_param":{"num_deleted":"0","num_feature":"90","num_nodes":"25","size_leaf_vector":"1"}},{"base_weights":[7.909806E-2,-1.0923188E0,2.245906E0,-1.7571218E0,-1.8306547E-1,1.9833726E0,2.5034573E1,-5.581447E-1,-2.5363512E0,3.4094933E-2,-2.6531825E0,-8.756077E-1,2.4872262E0,4.5948625E-2,4.0372615E0,-1.1462694E-1,-6.0792426E-3,-2.842804E-1,-9.568417E-2,-5.430466E-2,3.3754088E-2,-3.9897946E-1,-1.0863353E-1,-2.445929E-3,-3.493184E-1,2.46492E-1,-1.9969454E-2],"categories":[],"categories_nodes":[],"categories_segments":[],"categories_sizes":[],"default_left":[0,0,0,0,0,0,0,0,0,0,0,0,0,0,0,0,0,0,0,0,0,0,0,0,0,0,0],"id":5,"left_children":[1,3,5,7,9,11,13,15,17,19,21,23,25,-1,-1,-1,-1,-1,-1,-1,-1,-1,-1,-1,-1,-1,-1],"loss_changes":[2.6619824E3,4.111928E2,2.152049E3,3.6588306E2,1.5492253E2,5.2782056E2,2.5246848E3,6.574161E1,3.2020618E2,7.39163E1,6.3784256E1,1.633288E2,5.0546033E2,0E0,0E0,0E0,0E0,0E0,0E0,0E0,0E0,0E0,0E0,0E0,0E0,0E0,0E0],"parents":[2147483647,0,0,1,1,2,2,3,3,4,4,5,5,6,6,7,7,8,8,9,9,10,10,11,11,12,12],"right_children":[2,4,6,8,10,12,14,16,18,20,22,24,26,-1,-1,-1,-1,-1,-1,-1,-1,-1,-1,-1,-1,-1,-1],"split_conditions":[3.6160517E0,4.697783E-1,3.5110626E1,5.737229E0,5.8103937E-1,8.944706E0,2.4064316E1,2.04E2,7.430208E0,6.7595835E0,9.9675E0,5.260443E0,6.282718E-1,4.5948625E-2,4.0372615E0,-1.1462694E-1,-6.0792426E-3,-2.842804E-1,-9.568417E-2,-5.430466E-2,3.3754088E-2,-3.9897946E-1,-1.0863353E-1,-2.445929E-3,-3.493184E-1,2.46492E-1,-1.9969454E-2],"split_indices":[80,80,71,64,22,72,81,67,72,72,72,81,22,0,0,0,0,0,0,0,0,0,0,0,0,0,0],"split_type":[0,0,0,0,0,0,0,0,0,0,0,0,0,0,0,0,0,0,0,0,0,0,0,0,0,0,0],"sum_hessian":[1.0467866E3,6.797805E2,3.6700613E2,3.9213638E2,2.8764413E2,3.639009E2,3.1052322E0,1.5514133E2,2.3699507E2,2.6530594E2,2.2338184E1,5.4412746E1,3.0948816E2,2.1040761E0,1.001156E0,5.442868E1,1.0071265E2,1.3380165E2,1.0319341E2,9.3213165E1,1.7209279E2,6.9549727E0,1.5383211E1,4.4620293E1,9.792453E0,2.5419861E2,5.5289555E1],"tree_param":{"num_deleted":"0","num_feature":"90","num_nodes":"27","size_leaf_vector":"1"}},{"base_weights":[3.0297764E-2,-5.0040845E-2,2.659252E0,-1.1522119E0,1.5450816E0,-8.4741974E-1,-2.6584375E0,8.929583E-1,3.3014493E0,-1.1001709E-1,-1.1326011E-2,-1.7259924E-1,-5.060768E-1,-1.6568623E-1,9.5313534E-2,2.0494471E-1,5.730516E-1],"categories":[],"categories_nodes":[],"categories_segments":[],"categories_sizes":[],"default_left":[0,0,0,0,0,0,0,0,0,0,0,0,0,0,0,0,0],"id":6,"left_children":[1,3,-1,5,7,9,11,13,15,-1,-1,-1,-1,-1,-1,-1,-1],"loss_changes":[2.8994158E3,1.9083699E3,0E0,2.924345E2,5.0509277E2,1.9924014E2,1.839707E2,2.8983093E2,3.236239E2,0E0,0E0,0E0,0E0,0E0,0E0,0E0,0E0],"parents":[2147483647,0,0,1,1,3,3,4,4,5,5,6,6,7,7,8,8],"right_children":[2,4,-1,6,8,10,12,14,16,-1,-1,-1,-1,-1,-1,-1,-1],"split_conditions":[3.381788E1,2.6363993E0,2.659252E0,8.991971E0,1.5024167E1,6.680278E0,1.6770076E0,6.680278E0,5.5003875E-1,-1.1001709E-1,-1.1326011E-2,-1.7259924E-1,-5.060768E-1,-1.6568623E-1,9.5313534E-2,2.0494471E-1,5.730516E-1],"split_indices":[80,80,0,64,72,72,74,72,12,0,0,0,0,0,0,0,0],"split_type":[0,0,0,0,0,0,0,0,0,0,0,0,0,0,0,0,0],"sum_hessian":[1.0850841E3,1.0834617E3,1.6224905E0,6.409005E2,4.425611E2,5.3433734E2,1.0656317E2,3.238332E2,1.1872789E2,3.0518646E2,2.2915091E2,9.515431E1,1.140886E1,2.9081697E1,2.947515E2,1.01039024E2,1.7688868E1],"tree_param":{"num_deleted":"0","num_feature":"90","num_nodes":"17","size_leaf_vector":"1"}},{"base_weights":[5.42215E-2,-2.1761509E-2,2.7593914E1,-1.0384245E0,1.3954554E0,2.105781E-1,3.0809114E0,-3.3274403E-1,-1.546262E0,5.8354753E-1,2.5103633E0,-7.1430676E-2,1.5012867E-2,-1.618087E-1,-3.7542187E-2,7.796008E-2,-1.8037888E-1,2.4593942E-1,2.151818E-2],"categories":[],"categories_nodes":[],"categories_segments":[],"categories_sizes":[],"default_left":[0,0,0,0,0,0,0,0,0,0,0,0,0,0,0,0,0,0,0],"id":7,"left_children":[1,3,5,7,9,-1,-1,11,13,15,17,-1,-1,-1,-1,-1,-1,-1,-1],"loss_changes":[2.3229236E3,1.597533E3,7.309988E2,2.3085083E2,4.1777844E2,0E0,0E0,7.929458E1,1.915119E2,3.0101508E2,2.4544556E2,0E0,0E0,0E0,0E0,0E0,0E0,0E0,0E0],"parents":[2147483647,0,0,1,1,2,2,3,3,4,4,7,7,8,8,9,9,10,10],"right_children":[2,4,6,8,10,-1,-1,12,14,16,18,-1,-1,-1,-1,-1,-1,-1,-1],"split_conditions":[3.381788E1,2.6363993E0,1.6490972E0,4.6455923E-1,1.346007E1,2.105781E-1,3.0809114E0,5.9328127E0,7.9525E0,9.103811E-1,6.282718E-1,-7.1430676E-2,1.5012867E-2,-1.618087E-1,-3.7542187E-2,7.796008E-2,-1.8037888E-1,2.4593942E-1,2.151818E-2],"split_indices":[80,80,74,41,71,0,0,72,71,46,22,0,0,0,0,0,0,0,0],"split_type":[0,0,0,0,0,0,0,0,0,0,0,0,0,0,0,0,0,0,0],"sum_hessian":[1.1088059E3,1.1067516E3,2.0543578E0,6.446028E2,4.6214877E2,1.0027578E0,1.0516E0,2.7044843E2,3.7415436E2,2.682933E2,1.9385545E2,1.2990694E2,1.4054149E2,2.588069E2,1.15347466E2,2.3638905E2,3.1904263E1,1.5459215E2,3.9263298E1],"tree_param":{"num_deleted":"0","num_feature":"90","num_nodes":"19","size_leaf_vector":"1"}},{"base_weights":[7.183178E-2,7.6482045E-3,2.9598372E0,-7.773199E-1,1.4942396E0,-1.3340963E0,-2.9285422E-1,8.5556364E-1,3.0173032E0,-3.5549205E-2,-1.8586056E-1,-3.6845922E-3,-1.5462139E-1,8.4246434E-2,-4.023014E-1,4.7667217E-1,1.4128572E-1],"categories":[],"categories_nodes":[],"categories_segments":[],"categories_sizes":[],"default_left":[0,0,0,0,0,0,0,0,0,0,0,0,0,0,0,0,0],"id":8,"left_children":[1,3,-1,5,7,9,11,13,15,-1,-1,-1,-1,-1,-1,-1,-1],"loss_changes":[2.741928E3,1.3501506E3,0E0,2.0385532E2,3.86341E2,3.0878082E2,1.642995E2,3.3431927E2,4.227202E2,0E0,0E0,0E0,0E0,0E0,0E0,0E0,0E0],"parents":[2147483647,0,0,1,1,3,3,4,4,5,5,6,6,7,7,8,8],"right_children":[2,4,-1,6,8,10,12,14,16,-1,-1,-1,-1,-1,-1,-1,-1],"split_conditions":[3.381788E1,3.6160517E0,2.9598372E0,5.8670835E0,1.5024167E1,5.737229E0,8.0212635E-1,8.4488606E-1,5.6055856E-1,-3.5549205E-2,-1.8586056E-1,-3.6845922E-3,-1.5462139E-1,8.4246434E-2,-4.023014E-1,4.7667217E-1,1.4128572E-1],"split_indices":[80,80,0,71,72,64,7,40,5,0,0,0,0,0,0,0,0],"split_type":[0,0,0,0,0,0,0,0,0,0,0,0,0,0,0,0,0],"sum_hessian":[1.156026E3,1.1550187E3,1.0074015E0,7.561986E2,3.9882007E2,3.510256E2,4.0517297E2,2.8209085E2,1.16729225E2,1.8556377E2,1.6546184E2,3.530667E2,5.210628E1,2.737239E2,8.366937E0,3.3715885E1,8.3013336E1],"tree_param":{"num_deleted":"0","num_feature":"90","num_nodes":"17","size_leaf_vector":"1"}},{"base_weights":[8.630807E-2,2.8958505E-2,2.2748864E0,-7.595551E-1,1.1222892E0,-4.763226E-1,-1.648583E0,5.5601364E-1,2.3362916E0,-6.889973E-2,5.414648E-3,-4.448892E-1,-1.2030609E-1,5.999181E-2,-1.8941928E-1,1.0734556E-1,3.1345713E-1],"categories":[],"categories_nodes":[],"categories_segments":[],"categories_sizes":[],"default_left":[0,0,0,0,0,0,0,0,0,0,0,0,0,0,0,0,0],"id":9,"left_children":[1,3,-1,5,7,9,11,13,15,-1,-1,-1,-1,-1,-1,-1,-1],"loss_changes":[1.9283018E3,1.0225699E3,0E0,1.727439E2,3.4036218E2,1.0979468E2,8.571088E1,1.9463528E2,2.4294568E2,0E0,0E0,0E0,0E0,0E0,0E0,0E0,0E0],"parents":[2147483647,0,0,1,1,3,3,4,4,5,5,6,6,7,7,8,8],"right_children":[2,4,-1,6,8,10,12,14,16,-1,-1,-1,-1,-1,-1,-1,-1],"split_conditions":[4.0287727E1,2.5104666E0,2.2748864E0,6.0970235E-1,7.435391E0,2.689867E1,3.8564238E-1,9.614518E-1,2.6296772E1,-6.889973E-2,5.414648E-3,-4.448892E-1,-1.2030609E-1,5.999181E-2,-1.8941928E-1,1.0734556E-1,3.1345713E-1],"split_indices":[80,80,0,7,80,65,87,41,65,0,0,0,0,0,0,0,0],"split_type":[0,0,0,0,0,0,0,0,0,0,0,0,0,0,0,0,0],"sum_hessian":[1.1855355E3,1.1841411E3,1.3944117E0,6.8815027E2,4.9599088E2,5.2304944E2,1.6510083E2,3.3921902E2,1.5677187E2,3.0597E2,2.170794E2,4.5555363E0,1.6054529E2,3.188205E2,2.0398546E1,9.739373E1,5.937813E1],"tree_param":{"num_deleted":"0","num_feature":"90","num_nodes":"17","size_leaf_vector":"1"}},{"base_weights":[1.0110435E-1,4.9780436E-2,2.1025143E0,-6.473397E-1,1.147614E0,-3.070624E0,-5.802299E-1,1.0799775E0,1.0067085E0,-1.2489929E-1,-4.4450992E-1,-7.826351E-2,-1.3826374E-2,4.8238505E-2,1.7159033E-1],"categories":[],"categories_nodes":[],"categories_segments":[],"categories_sizes":[],"default_left":[0,0,0,0,0,0,0,0,0,0,0,0,0,0,0],"id":10,"left_children":[1,3,-1,5,7,9,11,13,-1,-1,-1,-1,-1,-1,-1],"loss_changes":[1.6385386E3,9.336946E2,0E0,1.1957437E2,3.5290167E2,6.589865E1,1.177863E2,2.3851868E2,0E0,0E0,0E0,0E0,0E0,0E0,0E0],"parents":[2147483647,0,0,1,1,3,3,4,4,5,5,6,6,7,7],"right_children":[2,4,-1,6,8,10,12,14,-1,-1,-1,-1,-1,-1,-1],"split_conditions":[4.8902405E1,2.9526834E0,2.1025143E0,-2.873593E-1,1.1874891E1,1.4763703E0,5.8670835E0,7.7748747E0,1.0067085E0,-1.2489929E-1,-4.4450992E-1,-7.826351E-2,-1.3826374E-2,4.8238505E-2,1.7159033E-1],"split_indices":[80,80,0,63,82,37,71,80,0,0,0,0,0,0,0],"split_type":[0,0,0,0,0,0,0,0,0,0,0,0,0,0,0],"sum_hessian":[1.2194177E3,1.2180319E3,1.3859283E0,7.452263E2,4.7280557E2,1.887594E1,7.2635034E2,4.711137E2,1.691836E0,1.2757488E1,6.118452E0,3.6667596E2,3.5967438E2,3.2645334E2,1.446604E2],"tree_param":{"num_deleted":"0","num_feature":"90","num_nodes":"15","size_leaf_vector":"1"}},{"base_weights":[2.8229386E-2,-2.1797327E-2,1.7328544E0,-8.0298966E-1,7.9417074E-1,-2.8663638E-1,-1.4055346E0,2.9626673E-1,1.9529108E0,-7.849951E-2,3.1821409E-3,-1.0072199E-1,-4.4374174E-1,-7.718527E-2,5.3605493E-2,3.8254124E-1,1.2149402E-1],"categories":[],"categories_nodes":[],"categories_segments":[],"categories_sizes":[],"default_left":[0,0,0,0,0,0,0,0,0,0,0,0,0,0,0,0,0],"id":11,"left_children":[1,3,-1,5,7,9,11,13,15,-1,-1,-1,-1,-1,-1,-1,-1],"loss_changes":[1.324944E3,7.796031E2,0E0,1.9399603E2,3.4455975E2,7.6613106E1,1.6780951E2,1.9844609E2,2.1337683E2,0E0,0E0,0E0,0E0,0E0,0E0,0E0,0E0],"parents":[2147483647,0,0,1,1,3,3,4,4,5,5,6,6,7,7,8,8],"right_children":[2,4,-1,6,8,10,12,14,16,-1,-1,-1,-1,-1,-1,-1,-1],"split_conditions":[5.5200626E1,9.044791E0,1.7328544E0,5.1462984E-1,1.373875E1,4.7570834E0,1.1955E1,-3.939897E-2,2.1638278E-2,-7.849951E-2,3.1821409E-3,-1.0072199E-1,-4.4374174E-1,-7.718527E-2,5.3605493E-2,3.8254124E-1,1.2149402E-1],"split_indices":[71,72,0,26,71,72,71,63,27,0,0,0,0,0,0,0,0],"split_type":[0,0,0,0,0,0,0,0,0,0,0,0,0,0,0,0,0],"sum_hessian":[1.2228694E3,1.2210446E3,1.8247674E0,6.238236E2,5.9722095E2,3.367339E2,2.8708972E2,4.1860464E2,1.7861635E2,1.0701011E2,2.2972377E2,2.785395E2,8.550213E0,9.5348755E1,3.2325586E2,2.2437021E1,1.5617932E2],"tree_param":{"num_deleted":"0","num_feature":"90","num_nodes":"17","size_leaf_vector":"1"}},{"base_weights":[6.87399E-2,-3.124431E-1,1.8797883E0,-7.645934E-1,2.4592336E-1,1.6317627E0,1.2246674E1,-1.2335309E-1,-1.2678103E0,-9.2762494E-1,6.560355E-1,1.3102027E0,3.9698246E0,7.4205594E-3,2.126118E0,-4.22276E-2,4.1715108E-2,-9.21453E-2,-3.8103527E-1,-2.0768254E-1,-3.393993E-2,7.120029E-3,1.2448789E-1,2.2995843E-1,6.972822E-2,9.000119E-2,8.003943E-1,1.5992126E-1,-1.9981767E-1],"categories":[],"categories_nodes":[],"categories_segments":[],"categories_sizes":[],"default_left":[0,0,0,0,0,0,0,0,0,0,0,0,0,0,0,0,0,0,0,0,0,0,0,0,0,0,0,0,0],"id":12,"left_children":[1,3,5,7,9,11,13,15,17,19,21,23,25,27,-1,-1,-1,-1,-1,-1,-1,-1,-1,-1,-1,-1,-1,-1,-1],"loss_changes":[8.5993677E2,2.6003284E2,5.369248E2,1.834338E2,2.2261607E2,1.5469989E2,8.604357E2,6.581087E1,1.2370941E2,9.956917E1,1.7461649E2,1.2679663E2,4.2176923E2,2.318805E1,0E0,0E0,0E0,0E0,0E0,0E0,0E0,0E0,0E0,0E0,0E0,0E0,0E0,0E0,0E0],"parents":[2147483647,0,0,1,1,2,2,3,3,4,4,5,5,6,6,7,7,8,8,9,9,10,10,11,11,12,12,13,13],"right_children":[2,4,6,8,10,12,14,16,18,20,22,24,26,28,-1,-1,-1,-1,-1,-1,-1,-1,-1,-1,-1,-1,-1,-1,-1],"split_conditions":[6.39673E0,8.36875E0,4.6148853E1,5.7804565E0,-1.7427424E-1,2.8632744E1,3.1454962E-1,2.32E2,1.1894097E1,7.212309E0,1.0167084E1,3.0170056E-1,1.9669409E1,3.1870654E-1,2.126118E0,-4.22276E-2,4.1715108E-2,-9.21453E-2,-3.8103527E-1,-2.0768254E-1,-3.393993E-2,7.120029E-3,1.2448789E-1,2.2995843E-1,6.972822E-2,9.000119E-2,8.003943E-1,1.5992126E-1,-1.9981767E-1],"split_indices":[80,72,71,64,32,65,4,67,71,82,71,14,71,20,0,0,0,0,0,0,0,0,0,0,0,0,0,0,0],"split_type":[0,0,0,0,0,0,0,0,0,0,0,0,0,0,0,0,0,0,0,0,0,0,0,0,0,0,0,0,0],"sum_hessian":[1.2438191E3,1.0282286E3,2.1559042E2,5.6794916E2,4.602795E2,2.1168335E2,3.9070764E0,2.5027426E2,3.1767493E2,1.18869354E2,3.4141016E2,1.8746161E2,2.4221733E1,2.6468706E0,1.2602057E0,1.5390665E2,9.63676E1,3.087576E2,8.9173E0,2.6587975E1,9.228138E1,2.101289E2,1.3128123E2,3.9835075E1,1.4762654E2,1.7268276E1,6.953457E0,1.5871311E0,1.0597394E0],"tree_param":{"num_deleted":"0","num_feature":"90","num_nodes":"29","size_leaf_vector":"1"}},{"base_weights":[6.105115E-2,1.5274493E-2,1.6699167E1,-6.768636E-1,6.4454836E-1,7.325712E-3,2.2921436E0,-5.956789E-1,-3.049897E0,3.2807782E-1,1.73111E0,3.3588796E-3,-6.908594E-2,-7.6926273E-1,-1.7007682E-1,-6.6203624E-2,5.665142E-2,3.374799E-1,9.515642E-2],"categories":[],"categories_nodes":[],"categories_segments":[],"categories_sizes":[],"default_left":[0,0,0,0,0,0,0,0,0,0,0,0,0,0,0,0,0,0,0],"id":13,"left_children":[1,3,5,7,9,-1,-1,11,13,15,17,-1,-1,-1,-1,-1,-1,-1,-1],"loss_changes":[9.7168036E2,5.5515125E2,6.922285E2,1.1512393E2,2.2900089E2,0E0,0E0,1.00510544E2,9.98952E1,2.2821172E2,1.975556E2,0E0,0E0,0E0,0E0,0E0,0E0,0E0,0E0],"parents":[2147483647,0,0,1,1,2,2,3,3,4,4,7,7,8,8,9,9,10,10],"right_children":[2,4,6,8,10,-1,-1,12,14,16,18,-1,-1,-1,-1,-1,-1,-1,-1],"split_conditions":[5.2589016E1,8.36875E0,9.722997E2,1.3252723E1,1.4704861E1,7.325712E-3,2.2921436E0,-1.1228348E-1,3.478788E0,-1.5877353E-1,4.0597397E-1,3.3588796E-3,-6.908594E-2,-7.6926273E-1,-1.7007682E-1,-6.6203624E-2,5.665142E-2,3.374799E-1,9.515642E-2],"split_indices":[72,72,84,71,71,0,0,19,72,32,41,0,0,0,0,0,0,0,0],"split_type":[0,0,0,0,0,0,0,0,0,0,0,0,0,0,0,0,0,0,0],"sum_hessian":[1.2751133E3,1.2726128E3,2.5004375E0,6.059991E2,6.666138E2,1.4681606E0,1.0322767E0,5.871625E2,1.8836592E1,5.172594E2,1.4935435E2,1.7395197E2,4.132105E2,1.163174E0,1.7673416E1,1.2772431E2,3.8953513E2,2.5493736E1,1.2386062E2],"tree_param":{"num_deleted":"0","num_feature":"90","num_nodes":"19","size_leaf_vector":"1"}},{"base_weights":[6.0095698E-2,1.927924E-2,1.5336276E1,-5.6839126E-1,6.3293296E-1,-2.0883809E-1,2.1114514E0,-1.02277346E-1,-9.694068E-1,3.282073E-1,1.6999302E0,-3.477622E-2,3.024593E-2,-1.0326056E-1,-2.9514963E-2,5.1622953E-2,-4.641271E-2,1.1994778E-1,1.1549178E0],"categories":[],"categories_nodes":[],"categories_segments":[],"categories_sizes":[],"default_left":[0,0,0,0,0,0,0,0,0,0,0,0,0,0,0,0,0,0,0],"id":14,"left_children":[1,3,5,7,9,-1,-1,11,13,15,17,-1,-1,-1,-1,-1,-1,-1,-1],"loss_changes":[8.2836774E2,4.7871924E2,7.714101E2,1.2665175E2,2.1057681E2,0E0,0E0,5.041872E1,6.983673E1,1.4621477E2,3.4627563E2,0E0,0E0,0E0,0E0,0E0,0E0,0E0,0E0],"parents":[2147483647,0,0,1,1,2,2,3,3,4,4,7,7,8,8,9,9,10,10],"right_children":[2,4,6,8,10,-1,-1,12,14,16,18,-1,-1,-1,-1,-1,-1,-1,-1],"split_conditions":[4.8902405E1,8.757273E0,2.28125E0,5.903226E0,7.7748747E0,-2.0883809E-1,2.1114514E0,2.32E2,6.680278E0,6.5159774E-1,6.115868E-1,-3.477622E-2,3.024593E-2,-1.0326056E-1,-2.9514963E-2,5.1622953E-2,-4.641271E-2,1.1994778E-1,1.1549178E0],"split_indices":[80,72,74,64,80,0,0,67,72,18,63,0,0,0,0,0,0,0,0],"split_type":[0,0,0,0,0,0,0,0,0,0,0,0,0,0,0,0,0,0,0],"sum_hessian":[1.3280094E3,1.3254691E3,2.540262E0,6.771064E2,6.483628E2,1.2596265E0,1.2806354E0,3.1371725E2,3.6338916E2,5.0534735E2,1.4301543E2,1.854632E2,1.2825404E2,2.3596135E2,1.274278E2,3.7480524E2,1.305421E2,1.4189844E2,1.1169838E0],"tree_param":{"num_deleted":"0","num_feature":"90","num_nodes":"19","size_leaf_vector":"1"}},{"base_weights":[4.193785E-2,-1.1763299E-3,1.4727509E1,-5.429905E-1,5.9134233E-1,-6.452832E-2,2.3749444E0,-6.77745E-2,-8.7536305E-1,2.911563E-1,1.5690066E0,1.11957386E-1,-1.2460178E-2,-5.5763114E-2,-1.3513261E-1,4.6730526E-2,-4.3556996E-2,2.4091332E-1,6.075056E-2],"categories":[],"categories_nodes":[],"categories_segments":[],"categories_sizes":[],"default_left":[0,0,0,0,0,0,0,0,0,0,0,0,0,0,0,0,0,0,0],"id":15,"left_children":[1,3,5,7,9,-1,-1,11,13,15,17,-1,-1,-1,-1,-1,-1,-1,-1],"loss_changes":[8.397643E2,4.2518027E2,9.2614026E2,1.09209854E2,1.8520018E2,0E0,0E0,3.7110733E1,5.7885895E1,1.1910823E2,1.7099292E2,0E0,0E0,0E0,0E0,0E0,0E0,0E0,0E0],"parents":[2147483647,0,0,1,1,2,2,3,3,4,4,7,7,8,8,9,9,10,10],"right_children":[2,4,6,8,10,-1,-1,12,14,16,18,-1,-1,-1,-1,-1,-1,-1,-1],"split_conditions":[4.6148853E1,9.194792E0,-1.1394029E-1,5.7804565E0,1.4704861E1,-6.452832E-2,2.3749444E0,1.2225E0,1.2069819E0,8.462008E0,5.9558815E-1,1.11957386E-1,-1.2460178E-2,-5.5763114E-2,-1.3513261E-1,4.6730526E-2,-4.3556996E-2,2.4091332E-1,6.075056E-2],"split_indices":[71,72,58,64,71,0,0,71,49,64,5,0,0,0,0,0,0,0,0],"split_type":[0,0,0,0,0,0,0,0,0,0,0,0,0,0,0,0,0,0,0],"sum_hessian":[1.3252869E3,1.3224044E3,2.8824203E0,6.908015E2,6.3160297E2,1.8781657E0,1.0042547E0,2.8480295E2,4.0599857E2,4.8422296E2,1.4737999E2,1.5267829E1,2.695351E2,3.3454694E2,7.145163E1,3.587448E2,1.2547816E2,5.200661E1,9.5373375E1],"tree_param":{"num_deleted":"0","num_feature":"90","num_nodes":"19","size_leaf_vector":"1"}},{"base_weights":[2.6215555E-2,-1.3581173E-2,1.712866E1,-2.6115045E-1,1.1820353E0,2.623872E-3,2.0322554E0,-6.518868E-1,9.506846E-2,7.381173E-1,1.083791E0,1.724097E-2,-6.987774E-2,3.382636E-2,-6.585255E-2,2.2931074E-1,6.385929E-2],"categories":[],"categories_nodes":[],"categories_segments":[],"categories_sizes":[],"default_left":[0,0,0,0,0,0,0,0,0,0,0,0,0,0,0,0,0],"id":16,"left_children":[1,3,5,7,9,-1,-1,11,13,-1,15,-1,-1,-1,-1,-1,-1],"loss_changes":[9.06987E2,3.9403073E2,4.3679944E2,1.5355695E2,1.7047772E2,0E0,0E0,1.0129498E2,1.7422649E2,0E0,1.1312579E2,0E0,0E0,0E0,0E0,0E0,0E0],"parents":[2147483647,0,0,1,1,2,2,3,3,4,4,7,7,8,8,10,10],"right_children":[2,4,6,8,10,-1,-1,12,14,-1,16,-1,-1,-1,-1,-1,-1],"split_conditions":[5.2589016E1,1.343875E1,4.1428068E-1,6.680278E0,2.8580695E-1,2.623872E-3,2.0322554E0,2.8131945E0,8.440758E0,7.381173E-1,2.1638278E-2,1.724097E-2,-6.987774E-2,3.382636E-2,-6.585255E-2,2.2931074E-1,6.385929E-2],"split_indices":[72,71,59,71,59,0,0,71,64,0,27,0,0,0,0,0,0],"split_type":[0,0,0,0,0,0,0,0,0,0,0,0,0,0,0,0,0],"sum_hessian":[1.331245E3,1.3291514E3,2.093678E0,1.1017914E3,2.2735991E2,1.0102934E0,1.0833845E0,5.2504254E2,5.767489E2,1.6221445E0,2.2573776E2,1.0684053E2,4.18202E2,4.254307E2,1.5131819E2,2.9919855E1,1.9581792E2],"tree_param":{"num_deleted":"0","num_feature":"90","num_nodes":"17","size_leaf_vector":"1"}},{"base_weights":[5.042442E-2,1.3212474E-2,1.6106825E1,-4.42662E-1,5.3386694E-1,-1.4700615E-1,2.043862E0,-1.609632E-2,-7.3197925E-1,7.7213156E-1,-9.9774283E-1,-2.410219E-2,3.7204154E-2,6.1913077E-3,-7.0046835E-2,4.461662E-2,1.3594389E-1,-1.7755738E-2,-1.565136E-1],"categories":[],"categories_nodes":[],"categories_segments":[],"categories_sizes":[],"default_left":[0,0,0,0,0,0,0,0,0,0,0,0,0,0,0,0,0,0,0],"id":17,"left_children":[1,3,5,7,9,-1,-1,11,13,15,17,-1,-1,-1,-1,-1,-1,-1,-1],"loss_changes":[8.034685E2,3.1899838E2,5.737342E2,8.8423965E1,2.297271E2,0E0,0E0,4.001782E1,4.969377E1,1.0710434E2,6.2708054E1,0E0,0E0,0E0,0E0,0E0,0E0,0E0,0E0],"parents":[2147483647,0,0,1,1,2,2,3,3,4,4,7,7,8,8,9,9,10,10],"right_children":[2,4,6,8,10,-1,-1,12,14,16,18,-1,-1,-1,-1,-1,-1,-1,-1],"split_conditions":[4.6148853E1,8.644711E0,2.7344808E-1,5.737229E0,6.560805E-1,-1.4700615E-1,2.043862E0,2.32E2,2.8131945E0,1.6860416E1,1.1708333E0,-2.410219E-2,3.7204154E-2,6.1913077E-3,-7.0046835E-2,4.461662E-2,1.3594389E-1,-1.7755738E-2,-1.565136E-1],"split_indices":[71,71,1,64,22,0,0,67,71,71,74,0,0,0,0,0,0,0,0],"split_type":[0,0,0,0,0,0,0,0,0,0,0,0,0,0,0,0,0,0,0],"sum_hessian":[1.3440961E3,1.3419867E3,2.1093347E0,7.155849E2,6.264018E2,1.0048639E0,1.1044708E0,2.896234E2,4.259615E2,5.4250323E2,8.3898544E1,1.8207796E2,1.0754547E2,6.4258575E1,3.617029E2,4.4190616E2,1.0059707E2,4.7053043E1,3.68455E1],"tree_param":{"num_deleted":"0","num_feature":"90","num_nodes":"19","size_leaf_vector":"1"}},{"base_weights":[4.9261272E-2,1.2321287E-2,1.9336166E0,-3.0506486E-1,6.187394E-1,-3.0052964E-2,-7.079485E-1,-4.3746595E0,6.8226403E-1,-4.2247366E-2,1.2725482E-2,-9.546069E-2,-3.6374703E-2,-2.9711336E-2,-5.8118445E-1,7.295285E-2,-5.314364E-2],"categories":[],"categories_nodes":[],"categories_segments":[],"categories_sizes":[],"default_left":[0,0,0,0,0,0,0,0,0,0,0,0,0,0,0,0,0],"id":18,"left_children":[1,3,-1,5,7,9,11,13,15,-1,-1,-1,-1,-1,-1,-1,-1],"loss_changes":[1.2364562E3,2.6712112E2,0E0,1.009235E2,1.5423218E2,5.11828E1,4.488121E1,6.816398E1,1.4646794E2,0E0,0E0,0E0,0E0,0E0,0E0,0E0,0E0],"parents":[2147483647,0,0,1,1,3,3,4,4,5,5,6,6,7,7,8,8],"right_children":[2,4,-1,6,8,10,12,14,16,-1,-1,-1,-1,-1,-1,-1,-1],"split_conditions":[5.5200626E1,1.0259722E1,1.9336166E0,4.824611E-1,4.271076E0,4.6614585E0,5.23125E0,6.3442636E0,6.560805E-1,-4.2247366E-2,1.2725482E-2,-9.546069E-2,-3.6374703E-2,-2.9711336E-2,-5.8118445E-1,7.295285E-2,-5.314364E-2],"split_indices":[71,71,0,7,72,72,71,83,22,0,0,0,0,0,0,0,0],"split_type":[0,0,0,0,0,0,0,0,0,0,0,0,0,0,0,0,0],"sum_hessian":[1.3870089E3,1.385887E3,1.1219037E0,9.1007196E2,4.7581503E2,5.415083E2,3.685637E2,5.1246233E0,4.7069043E2,1.4854153E2,3.9296677E2,1.2511146E2,2.4345224E2,2.6216974E0,2.5029256E0,4.0238858E2,6.830185E1],"tree_param":{"num_deleted":"0","num_feature":"90","num_nodes":"17","size_leaf_vector":"1"}},{"base_weights":[4.193371E-2,1.2104079E-2,1.2942777E1,-4.1192472E-1,4.0923357E-1,-6.273914E-1,2.3203025E0,-9.776176E-3,-7.046077E-1,-6.521079E-1,4.348156E-1,1.11991346E-1,-7.3648524E-3,-2.3133318E-1,-5.1976614E-2,-2.8439363E-2,5.499257E-2],"categories":[],"categories_nodes":[],"categories_segments":[],"categories_sizes":[],"default_left":[0,0,0,0,0,0,0,0,0,0,0,0,0,0,0,0,0],"id":19,"left_children":[1,3,5,7,9,-1,-1,11,13,-1,15,-1,-1,-1,-1,-1,-1],"loss_changes":[5.327612E2,2.3299556E2,1.2936134E3,7.875546E1,1.6000954E2,0E0,0E0,3.2941956E1,4.4621872E1,0E0,1.4263348E2,0E0,0E0,0E0,0E0,0E0,0E0],"parents":[2147483647,0,0,1,1,2,2,3,3,4,4,7,7,8,8,10,10],"right_children":[2,4,6,8,10,-1,-1,12,14,-1,16,-1,-1,-1,-1,-1,-1],"split_conditions":[4.0287727E1,7.884375E0,2.1614583E0,5.737229E0,2.975E0,-6.273914E-1,2.3203025E0,1.2225E0,7.26953E1,-6.521079E-1,-3.724198E-2,1.11991346E-1,-7.3648524E-3,-2.3133318E-1,-5.1976614E-2,-2.8439363E-2,5.499257E-2],"split_indices":[80,71,74,64,72,0,0,71,66,0,6,0,0,0,0,0,0],"split_type":[0,0,0,0,0,0,0,0,0,0,0,0,0,0,0,0,0],"sum_hessian":[1.3838232E3,1.3816295E3,2.1936982E0,6.681672E2,7.1346234E2,1.1792705E0,1.0144275E0,2.818865E2,3.8628067E2,1.1793449E0,7.1228296E2,1.4663521E1,2.67223E2,8.193762E0,3.780869E2,1.7241719E2,5.398658E2],"tree_param":{"num_deleted":"0","num_feature":"90","num_nodes":"17","size_leaf_vector":"1"}},{"base_weights":[5.661342E-2,3.185264E-2,8.8410515E-1,-1.5871963E-1,9.365273E-1,-1.7655666E-1,5.9343815E0,1.8437268E0,3.9070317E-1,-2.8315682E-2,2.5956592E-2,7.923029E-1,-3.17297E-2,3.0290237E-1,9.596453E-2,3.782808E-1,1.7897809E-2],"categories":[],"categories_nodes":[],"categories_segments":[],"categories_sizes":[],"default_left":[0,0,0,0,0,0,0,0,0,0,0,0,0,0,0,0,0],"id":20,"left_children":[1,3,-1,5,7,9,11,13,15,-1,-1,-1,-1,-1,-1,-1,-1],"loss_changes":[3.6479343E2,2.3104584E2,0E0,1.2136929E2,1.1474179E2,9.830599E1,8.58614E1,1.04728546E2,1.05312164E2,0E0,0E0,0E0,0E0,0E0,0E0,0E0,0E0],"parents":[2147483647,0,0,1,1,3,3,4,4,5,5,6,6,7,7,8,8],"right_children":[2,4,-1,6,8,10,12,14,16,-1,-1,-1,-1,-1,-1,-1,-1],"split_conditions":[4.0287727E1,1.3359167E1,8.8410515E-1,1.6776836E1,6.48831E-1,6.419477E-1,6.840833E-1,3.02E2,3.3854072E-3,-2.8315682E-2,2.5956592E-2,7.923029E-1,-3.17297E-2,3.0290237E-1,9.596453E-2,3.782808E-1,1.7897809E-2],"split_indices":[80,72,0,80,9,16,52,68,4,0,0,0,0,0,0,0,0],"split_type":[0,0,0,0,0,0,0,0,0,0,0,0,0,0,0,0,0],"sum_hessian":[1.340276E3,1.338265E3,2.0109625E0,1.1060889E3,2.3217618E2,1.1038285E3,2.2603395E0,8.6323074E1,1.458531E2,8.154155E2,2.88413E2,1.0424277E0,1.2179118E0,2.028228E1,6.6040794E1,4.3937936E0,1.414593E2],"tree_param":{"num_deleted":"0","num_feature":"90","num_nodes":"17","size_leaf_vector":"1"}},{"base_weights":[2.8363844E-2,2.6011579E-3,1.159961E0,-3.259733E-1,3.7609154E-1,-7.24334E-2,-6.5152663E-1,-5.277976E-1,5.804166E-1,-5.33943E-2,4.4946712E-3,2.0626316E-2,-6.515225E-2,-9.743255E-2,9.102961E-3,-2.400155E-1,5.0411277E-2],"categories":[],"categories_nodes":[],"categories_segments":[],"categories_sizes":[],"default_left":[0,0,0,0,0,0,0,0,0,0,0,0,0,0,0,0,0],"id":21,"left_children":[1,3,-1,5,7,9,11,13,15,-1,-1,-1,-1,-1,-1,-1,-1],"loss_changes":[5.2127386E2,1.7154005E2,0E0,6.1332573E1,1.2112768E2,3.2115627E1,4.8413696E1,5.3774815E1,9.697543E1,0E0,0E0,0E0,0E0,0E0,0E0,0E0,0E0],"parents":[2147483647,0,0,1,1,3,3,4,4,5,5,6,6,7,7,8,8],"right_children":[2,4,-1,6,8,10,12,14,16,-1,-1,-1,-1,-1,-1,-1,-1],"split_conditions":[4.6148853E1,8.644711E0,1.159961E0,6.3445435E0,-1.56278E-1,8.441312E-2,2.8131945E0,7.399806E0,4.00375E0,-5.33943E-2,4.4946712E-3,2.0626316E-2,-6.515225E-2,-9.743255E-2,9.102961E-3,-2.400155E-1,5.0411277E-2],"split_indices":[71,71,0,64,60,17,71,83,72,0,0,0,0,0,0,0,0],"split_type":[0,0,0,0,0,0,0,0,0,0,0,0,0,0,0,0,0],"sum_hessian":[1.3973091E3,1.3958243E3,1.4847772E0,7.4263007E2,6.531943E2,4.1817734E2,3.2445276E2,1.2013969E2,5.3305457E2,7.358337E1,3.4459396E2,4.9197178E1,2.7525555E2,5.7448227E1,6.2691463E1,6.488465E0,5.265661E2],"tree_param":{"num_deleted":"0","num_feature":"90","num_nodes":"17","size_leaf_vector":"1"}},{"base_weights":[4.849313E-2,2.043125E-2,1.3576592E0,-1.1037599E-1,9.9530274E-1,-4.6992543E-1,9.3288764E-2,1.1414691E0,-3.4556656E0,2.4554977E-2,-5.73782E-2,5.9628624E-2,-5.6055454E-3,2.6816475E-1,6.316237E-2,1.763761E-1,-7.561212E-1],"categories":[],"categories_nodes":[],"categories_segments":[],"categories_sizes":[],"default_left":[0,0,0,0,0,0,0,0,0,0,0,0,0,0,0,0,0],"id":22,"left_children":[1,3,-1,5,7,9,11,13,15,-1,-1,-1,-1,-1,-1,-1,-1],"loss_changes":[6.5400287E2,1.7566377E2,0E0,8.89939E1,1.09968124E2,8.464101E1,8.274319E1,1.20694565E2,2.0512027E2,0E0,0E0,0E0,0E0,0E0,0E0,0E0,0E0],"parents":[2147483647,0,0,1,1,3,3,4,4,5,5,6,6,7,7,8,8],"right_children":[2,4,-1,6,8,10,12,14,16,-1,-1,-1,-1,-1,-1,-1,-1],"split_conditions":[3.492969E1,1.4704861E1,1.3576592E0,5.8670835E0,8.512353E1,2.8131945E0,6.3486923E1,2.1638278E-2,1.3246938E1,2.4554977E-2,-5.73782E-2,5.9628624E-2,-5.6055454E-3,2.6816475E-1,6.316237E-2,1.763761E-1,-7.561212E-1],"split_indices":[81,71,0,71,66,71,89,27,80,0,0,0,0,0,0,0,0],"split_type":[0,0,0,0,0,0,0,0,0,0,0,0,0,0,0,0,0],"sum_hessian":[1.376955E3,1.3756749E3,1.2800511E0,1.2137076E3,1.6196725E2,4.3841794E2,7.752897E2,1.5753738E2,4.429862E0,1.05805275E2,3.3261267E2,1.5460344E2,6.206863E2,2.046552E1,1.3707187E2,2.6039267E0,1.8259355E0],"tree_param":{"num_deleted":"0","num_feature":"90","num_nodes":"17","size_leaf_vector":"1"}},{"base_weights":[2.111062E-2,-7.79118E-3,1.1424438E0,-1.674238E-1,7.8534424E-1,-1.8279459E-1,5.0524205E-1,8.66587E-1,-5.2499046E0,-3.1870455E-2,1.26261255E-2,1.3440633E-1,2.8534364E-2,4.014732E-2,-6.64216E-1],"categories":[],"categories_nodes":[],"categories_segments":[],"categories_sizes":[],"default_left":[0,0,0,0,0,0,0,0,0,0,0,0,0,0,0],"id":23,"left_children":[1,3,-1,5,7,9,-1,11,13,-1,-1,-1,-1,-1,-1],"loss_changes":[5.7689355E2,1.7709546E2,0E0,1.17179695E2,1.19459E2,8.5433945E1,0E0,9.5677795E1,6.1312668E1,0E0,0E0,0E0,0E0,0E0,0E0],"parents":[2147483647,0,0,1,1,3,3,4,4,5,5,7,7,8,8],"right_children":[2,4,-1,6,8,10,-1,12,14,-1,-1,-1,-1,-1,-1],"split_conditions":[4.476375E1,1.3452084E1,1.1424438E0,1.8904045E1,3.0089764E1,2.4736293E-1,5.0524205E-1,5.730002E-1,5.943224E-3,-3.1870455E-2,1.26261255E-2,1.3440633E-1,2.8534364E-2,4.014732E-2,-6.64216E-1],"split_indices":[72,72,0,80,80,32,0,41,39,0,0,0,0,0,0],"split_type":[0,0,0,0,0,0,0,0,0,0,0,0,0,0,0],"sum_hessian":[1.3985376E3,1.3967062E3,1.8314661E0,1.1633501E3,2.33356E2,1.1615679E3,1.7822233E0,2.3110147E2,2.2545323E0,7.1124E2,4.503279E2,8.8159454E1,1.4294202E2,1.0714447E0,1.1830876E0],"tree_param":{"num_deleted":"0","num_feature":"90","num_nodes":"15","size_leaf_vector":"1"}},{"base_weights":[3.9755918E-2,1.3661504E-2,1.3097049E0,-1.2229713E-1,6.579346E-1,-1.3885362E-1,4.509943E0,1.0310819E0,-4.422577E-1,-2.8466634E-2,1.4801381E-2,-1.0239351E-1,8.542768E-1,4.6822954E-2,2.6851055E-1,8.31583E-1,-7.732432E-2],"categories":[],"categories_nodes":[],"categories_segments":[],"categories_sizes":[],"default_left":[0,0,0,0,0,0,0,0,0,0,0,0,0,0,0,0,0],"id":24,"left_children":[1,3,-1,5,7,9,11,13,15,-1,-1,-1,-1,-1,-1,-1,-1],"loss_changes":[6.063567E2,1.2464729E2,0E0,9.0750824E1,1.02252396E2,8.241973E1,1.6420663E2,1.9028577E2,3.7084293E2,0E0,0E0,0E0,0E0,0E0,0E0,0E0,0E0],"parents":[2147483647,0,0,1,1,3,3,4,4,5,5,6,6,7,7,8,8],"right_children":[2,4,-1,6,8,10,12,14,16,-1,-1,-1,-1,-1,-1,-1,-1],"split_conditions":[4.6148853E1,1.3452084E1,1.3097049E0,1.6776836E1,1.3246938E1,2.4736293E-1,4.1314316E-1,1.7324167E1,2.8606164E-1,-2.8466634E-2,1.4801381E-2,-1.0239351E-1,8.542768E-1,4.6822954E-2,2.6851055E-1,8.31583E-1,-7.732432E-2],"split_indices":[71,72,0,80,80,32,52,71,14,0,0,0,0,0,0,0,0],"split_type":[0,0,0,0,0,0,0,0,0,0,0,0,0,0,0,0,0],"sum_hessian":[1.4223549E3,1.4210851E3,1.2697608E0,1.1741241E3,2.4696101E2,1.170909E3,3.2150257E0,1.8446101E2,6.2499996E1,7.011025E2,4.698066E2,2.067215E0,1.1478107E0,1.5583652E2,2.8624498E1,2.0154338E0,6.0484566E1],"tree_param":{"num_deleted":"0","num_feature":"90","num_nodes":"17","size_leaf_vector":"1"}},{"base_weights":[1.0294996E-2,-1.9686002E-2,1.1494914E0,-3.8561958E-1,1.8792574E-1,-3.1803218E-1,-4.186015E0,3.151244E-1,-6.880111E-1,2.7533136E-2,-4.033333E-2,-1.7137174E-1,-7.753439E-1,2.679872E-2,-2.5296745E-1,-4.3299267E-1,-4.789275E-2],"categories":[],"categories_nodes":[],"categories_segments":[],"categories_sizes":[],"default_left":[0,0,0,0,0,0,0,0,0,0,0,0,0,0,0,0,0],"id":25,"left_children":[1,3,-1,5,7,9,11,13,15,-1,-1,-1,-1,-1,-1,-1,-1],"loss_changes":[6.1555554E2,1.0850743E2,0E0,1.3145987E2,1.0175409E2,6.2915302E1,7.996829E1,5.605889E1,4.5672493E1,0E0,0E0,0E0,0E0,0E0,0E0,0E0,0E0],"parents":[2147483647,0,0,1,1,3,3,4,4,5,5,6,6,7,7,8,8],"right_children":[2,4,-1,6,8,10,12,14,16,-1,-1,-1,-1,-1,-1,-1,-1],"split_conditions":[4.476375E1,6.680278E0,1.1494914E0,3.441403E0,6.560805E-1,4.85618E0,2.6542023E-2,3.621021E1,5.568804E0,2.7533136E-2,-4.033333E-2,-1.7137174E-1,-7.753439E-1,2.679872E-2,-2.5296745E-1,-4.3299267E-1,-4.789275E-2],"split_indices":[72,72,0,81,22,64,54,72,82,0,0,0,0,0,0,0,0],"split_type":[0,0,0,0,0,0,0,0,0,0,0,0,0,0,0,0,0],"sum_hessian":[1.4282792E3,1.4262997E3,1.9795611E0,5.159811E2,9.1031854E2,5.0802982E2,7.951273E0,7.9544824E2,1.14870316E2,1.1128185E2,3.9674796E2,6.811694E0,1.1395789E0,7.9182947E2,3.6187496E0,1.0263937E0,1.1384392E2],"tree_param":{"num_deleted":"0","num_feature":"90","num_nodes":"17","size_leaf_vector":"1"}},{"base_weights":[2.212141E-2,-9.611903E-3,1.7826326E0,4.568451E-3,-6.601781E0,-3.5717875E-1,2.4009775E-1,-8.6815995E-1,8.032221E-2,2.9090492E-2,-4.166583E-2,-2.7661048E-2,3.6475718E-2],"categories":[],"categories_nodes":[],"categories_segments":[],"categories_sizes":[],"default_left":[0,0,0,0,0,0,0,0,0,0,0,0,0],"id":26,"left_children":[1,3,-1,5,7,9,11,-1,-1,-1,-1,-1,-1],"loss_changes":[1.0032984E3,1.3267314E2,0E0,1.2080937E2,1.093761E2,6.6144E1,1.0875479E2,0E0,0E0,0E0,0E0,0E0,0E0],"parents":[2147483647,0,0,1,1,3,3,4,4,5,5,6,6],"right_children":[2,4,-1,6,8,10,12,-1,-1,-1,-1,-1,-1],"split_conditions":[4.8902405E1,4.0257637E1,1.7826326E0,6.680278E0,4.0622154E-1,2.8131945E0,-2.0064691E-2,-8.6815995E-1,8.032221E-2,2.9090492E-2,-4.166583E-2,-2.7661048E-2,3.6475718E-2],"split_indices":[80,71,0,71,1,71,63,0,0,0,0,0,0],"split_type":[0,0,0,0,0,0,0,0,0,0,0,0,0],"sum_hessian":[1.4189777E3,1.4179559E3,1.0217638E0,1.4159094E3,2.046443E0,5.5814435E2,8.577651E2,1.0390211E0,1.0074217E0,1.03043304E2,4.5510104E2,2.3077884E2,6.2698627E2],"tree_param":{"num_deleted":"0","num_feature":"90","num_nodes":"13","size_leaf_vector":"1"}},{"base_weights":[4.656855E-2,2.1682888E-2,1.0575058E0,-7.684461E-2,1.0392901E0,4.4771496E-2,-5.708705E-1,4.9174565E-1,3.1817226E0,-3.37064E-2,1.5176222E-2,-3.0379755E-2,-1.1867309E-1,1.7775728E-1,-3.446314E-2,7.944599E-1,1.17462106E-1],"categories":[],"categories_nodes":[],"categories_segments":[],"categories_sizes":[],"default_left":[0,0,0,0,0,0,0,0,0,0,0,0,0,0,0,0,0],"id":27,"left_children":[1,3,-1,5,7,9,11,13,15,-1,-1,-1,-1,-1,-1,-1,-1],"loss_changes":[4.7356384E2,1.448408E2,0E0,7.917087E1,1.4802989E2,7.1550835E1,4.4834618E1,1.6496344E2,2.8347784E2,0E0,0E0,0E0,0E0,0E0,0E0,0E0,0E0],"parents":[2147483647,0,0,1,1,3,3,4,4,5,5,6,6,7,7,8,8],"right_children":[2,4,-1,6,8,10,12,14,16,-1,-1,-1,-1,-1,-1,-1,-1],"split_conditions":[4.476375E1,1.6543056E1,1.0575058E0,9.2834216E-1,2.7021973E1,5.0095487E0,2.513435E-1,1.3246938E1,2.21E2,-3.37064E-2,1.5176222E-2,-3.0379755E-2,-1.1867309E-1,1.7775728E-1,-3.446314E-2,7.944599E-1,1.17462106E-1],"split_indices":[72,71,0,59,65,72,23,80,67,0,0,0,0,0,0,0,0],"split_type":[0,0,0,0,0,0,0,0,0,0,0,0,0,0,0,0,0],"sum_hessian":[1.4445465E3,1.4428223E3,1.7242035E0,1.3162991E3,1.2652317E2,1.0570024E3,2.5929666E2,1.0174865E2,2.4774517E1,2.5025877E2,8.0674365E2,2.1556479E2,4.3731865E1,3.4894756E1,6.68539E1,4.0452127E0,2.0729303E1],"tree_param":{"num_deleted":"0","num_feature":"90","num_nodes":"17","size_leaf_vector":"1"}},{"base_weights":[3.3443864E-2,9.839124E-3,7.8191643E0,8.809019E-2,-8.178339E-1,1.7586555E0,-6.1261E-1,-9.515374E-2,4.4715407E-1,-1.5405543E0,-4.085345E-1,2.7091049E-2,-1.644171E-2,-4.913941E-1,3.8882647E-2,-4.375028E-2,-2.2693226E-1,3.295281E-2,-7.220363E-2],"categories":[],"categories_nodes":[],"categories_segments":[],"categories_sizes":[],"default_left":[0,0,0,0,0,0,0,0,0,0,0,0,0,0,0,0,0,0,0],"id":28,"left_children":[1,3,5,7,9,-1,-1,11,13,15,17,-1,-1,-1,-1,-1,-1,-1,-1],"loss_changes":[2.6148703E2,9.2036644E1,1.1111101E3,8.545909E1,3.5680573E1,0E0,0E0,4.126096E1,1.1541264E2,5.5142838E1,3.2685966E1,0E0,0E0,0E0,0E0,0E0,0E0,0E0,0E0],"parents":[2147483647,0,0,1,1,2,2,3,3,4,4,7,7,8,8,9,9,10,10],"right_children":[2,4,6,8,10,-1,-1,12,14,16,18,-1,-1,-1,-1,-1,-1,-1,-1],"split_conditions":[3.8457397E1,7.262107E-1,7.829162E1,1.0404375E1,7.1354127E0,1.7586555E0,-6.1261E-1,5.0242767E0,3.478788E0,1.0249504E0,5.3965133E-1,2.7091049E-2,-1.644171E-2,-4.913941E-1,3.8882647E-2,-4.375028E-2,-2.2693226E-1,3.295281E-2,-7.220363E-2],"split_indices":[72,22,66,71,83,0,0,64,72,9,52,0,0,0,0,0,0,0,0],"split_type":[0,0,0,0,0,0,0,0,0,0,0,0,0,0,0,0,0,0,0],"sum_hessian":[1.4222458E3,1.4189452E3,3.3006928E0,1.2971973E3,1.2174793E2,1.5039301E0,1.7967627E0,8.593655E2,4.3783182E2,4.302054E1,7.8727394E1,1.7387892E2,6.854865E2,1.6472809E0,4.3618454E2,2.5156122E1,1.7864416E1,2.9650522E1,4.9076874E1],"tree_param":{"num_deleted":"0","num_feature":"90","num_nodes":"19","size_leaf_vector":"1"}},{"base_weights":[8.171922E-3,-1.46537805E-2,1.2515405E0,-1.0924601E-1,6.575688E-1,-1.7014407E-2,-7.1328443E-1,-2.0928564E0,8.5817295E-1,-1.2901086E-1,9.857572E-4,-4.258357E-2,-1.6465177E-1,9.929371E-2,-4.6905217E-1,1.5246582E-1,2.8734244E-2],"categories":[],"categories_nodes":[],"categories_segments":[],"categories_sizes":[],"default_left":[0,0,0,0,0,0,0,0,0,0,0,0,0,0,0,0,0],"id":29,"left_children":[1,3,-1,5,7,9,11,13,15,-1,-1,-1,-1,-1,-1,-1,-1],"loss_changes":[5.155026E2,9.180396E1,0E0,7.049193E1,1.0006247E2,5.145952E1,3.9702637E1,1.631193E2,8.6463066E1,0E0,0E0,0E0,0E0,0E0,0E0,0E0,0E0],"parents":[2147483647,0,0,1,1,3,3,4,4,5,5,6,6,7,7,8,8],"right_children":[2,4,-1,6,8,10,12,14,16,-1,-1,-1,-1,-1,-1,-1,-1],"split_conditions":[4.476375E1,1.4704861E1,1.2515405E0,1.1940624E0,8.6E1,7.26953E1,7.5399184E-1,1.3246938E1,2.18E2,-1.2901086E-1,9.857572E-4,-4.258357E-2,-1.6465177E-1,9.929371E-2,-4.6905217E-1,1.5246582E-1,2.8734244E-2],"split_indices":[72,71,0,49,67,66,47,80,67,0,0,0,0,0,0,0,0],"split_type":[0,0,0,0,0,0,0,0,0,0,0,0,0,0,0,0,0],"sum_hessian":[1.4427285E3,1.441623E3,1.1054318E0,1.2645225E3,1.771006E2,1.097909E3,1.6661336E2,1.1397673E1,1.6570293E2,1.8846872E1,1.0790623E3,1.4808066E2,1.8532692E1,6.404793E0,4.99288E0,5.2551235E1,1.13151695E2],"tree_param":{"num_deleted":"0","num_feature":"90","num_nodes":"17","size_leaf_vector":"1"}},{"base_weights":[2.0760594E-2,-1.2751296E-2,1.9111432E0,4.8103626E-3,-4.1313686E0,-4.0821832E-1,1.4595304E-1,3.819885E-1,-7.830211E0,2.734314E-2,-5.660207E-2,-2.2649154E-1,1.3246905E-2,-7.342091E-2,1.5459542E-1,-1.0372623E0,7.495047E-2],"categories":[],"categories_nodes":[],"categories_segments":[],"categories_sizes":[],"default_left":[0,0,0,0,0,0,0,0,0,0,0,0,0,0,0,0,0],"id":30,"left_children":[1,3,-1,5,7,9,11,13,15,-1,-1,-1,-1,-1,-1,-1,-1],"loss_changes":[1.152091E3,1.04097336E2,0E0,8.3645485E1,1.0500373E2,8.227798E1,6.2973946E1,9.24142E0,1.6544899E2,0E0,0E0,0E0,0E0,0E0,0E0,0E0,0E0],"parents":[2147483647,0,0,1,1,3,3,4,4,5,5,6,6,7,7,8,8],"right_children":[2,4,-1,6,8,10,12,14,16,-1,-1,-1,-1,-1,-1,-1,-1],"split_conditions":[4.8902405E1,3.0089764E1,1.9111432E0,5.23125E0,6.1229603E1,2.8131945E0,2.975E0,2.687603E-1,8.576375E-1,2.734314E-2,-5.660207E-2,-2.2649154E-1,1.3246905E-2,-7.342091E-2,1.5459542E-1,-1.0372623E0,7.495047E-2],"split_indices":[80,80,0,71,89,71,72,40,52,0,0,0,0,0,0,0,0],"split_type":[0,0,0,0,0,0,0,0,0,0,0,0,0,0,0,0,0],"sum_hessian":[1.4389496E3,1.4379302E3,1.0194168E0,1.4328196E3,5.110667E0,3.644449E2,1.0683746E3,2.7057803E0,2.4048867E0,1.03914085E2,2.605308E2,6.0613337E0,1.0623134E3,1.6938721E0,1.011908E0,1.2145286E0,1.1903583E0],"tree_param":{"num_deleted":"0","num_feature":"90","num_nodes":"17","size_leaf_vector":"1"}},{"base_weights":[8.685094E-4,-3.346126E-2,1.5711392E0,-1.4413837E-2,-7.5970566E-1,8.202648E-2,-4.6019027E-1,-1.7589858E-2,2.2284282E-2,-1.1383891E-1,-1.3413863E-2],"categories":[],"categories_nodes":[],"categories_segments":[],"categories_sizes":[],"default_left":[0,0,0,0,0,0,0,0,0,0,0],"id":31,"left_children":[1,3,-1,5,-1,7,9,-1,-1,-1,-1],"loss_changes":[9.8767773E2,2.6346378E2,0E0,6.2827415E1,0E0,7.1354515E1,7.296566E1,0E0,0E0,0E0,0E0],"parents":[2147483647,0,0,1,1,3,3,5,5,6,6],"right_children":[2,4,-1,6,-1,8,10,-1,-1,-1,-1],"split_conditions":[6.852953E1,4.0257637E1,1.5711392E0,1.0541492E0,-7.5970566E-1,6.7595835E0,7.123846E0,-1.7589858E-2,2.2284282E-2,-1.1383891E-1,-1.3413863E-2],"split_indices":[81,71,0,49,0,72,82,0,0,0,0],"split_type":[0,0,0,0,0,0,0,0,0,0,0],"sum_hessian":[1.4630294E3,1.4614729E3,1.5564997E0,1.4595366E3,1.9363219E0,1.2006099E3,2.5892676E2,4.7334732E2,7.272625E2,5.9435375E1,1.994914E2],"tree_param":{"num_deleted":"0","num_feature":"90","num_nodes":"11","size_leaf_vector":"1"}},{"base_weights":[6.298299E-3,-1.1191624E-2,9.935023E-1,-8.4073775E-2,4.954896E-1,6.2518306E-2,-3.406502E-1,1.0374854E0,-2.76606E-1,3.3819037E-3,1.9623035E-1,-5.75131E-2,-4.8452406E-3,5.386685E-2,3.9661455E-1,2.671748E-1,-7.0437945E-2],"categories":[],"categories_nodes":[],"categories_segments":[],"categories_sizes":[],"default_left":[0,0,0,0,0,0,0,0,0,0,0,0,0,0,0,0,0],"id":32,"left_children":[1,3,-1,5,7,9,11,13,15,-1,-1,-1,-1,-1,-1,-1,-1],"loss_changes":[3.1686078E2,5.3877766E1,0E0,4.7991333E1,7.706703E1,3.9214684E1,4.9103317E1,1.5085388E2,1.6992067E2,0E0,0E0,0E0,0E0,0E0,0E0,0E0,0E0],"parents":[2147483647,0,0,1,1,3,3,4,4,5,5,6,6,7,7,8,8],"right_children":[2,4,-1,6,8,10,12,14,16,-1,-1,-1,-1,-1,-1,-1,-1],"split_conditions":[4.0257637E1,1.4704861E1,9.935023E-1,5.236363E-1,1.3602753E1,1.9882986E1,7.225753E0,1.998611E1,3.0170056E-1,3.3819037E-3,1.9623035E-1,-5.75131E-2,-4.8452406E-3,5.386685E-2,3.9661455E-1,2.671748E-1,-7.0437945E-2],"split_indices":[71,71,0,14,80,72,82,71,14,0,0,0,0,0,0,0,0],"split_type":[0,0,0,0,0,0,0,0,0,0,0,0,0,0,0,0,0],"sum_hessian":[1.45792E3,1.4568663E3,1.0537127E0,1.2743894E3,1.8247693E2,8.115027E2,4.628867E2,1.0701253E2,7.546439E1,8.056968E2,5.805942E0,1.9626186E2,2.6662482E2,9.898913E1,8.023405E0,1.015003E1,6.531436E1],"tree_param":{"num_deleted":"0","num_feature":"90","num_nodes":"17","size_leaf_vector":"1"}},{"base_weights":[-6.2743276E-3,-3.1712778E-2,1.4322516E0,6.1861843E-2,-4.722076E-1,-1.9688931E-1,3.0036715E-1,-1.0356697E0,-2.3430969E-1,-8.82413E-2,-1.076199E-2,1.1956556E-3,5.6791395E-2,-1.1505029E-1,3.321123E-2,-2.3082718E-2,3.8126987E-1],"categories":[],"categories_nodes":[],"categories_segments":[],"categories_sizes":[],"default_left":[0,0,0,0,0,0,0,0,0,0,0,0,0,0,0,0,0],"id":33,"left_children":[1,3,-1,5,7,9,11,13,15,-1,-1,-1,-1,-1,-1,-1,-1],"loss_changes":[6.7443713E2,6.0951954E1,0E0,7.534595E1,3.4486187E1,3.295179E1,7.423633E1,4.5334984E1,5.1117E1,0E0,0E0,0E0,0E0,0E0,0E0,0E0,0E0],"parents":[2147483647,0,0,1,1,3,3,4,4,5,5,6,6,7,7,8,8],"right_children":[2,4,-1,6,8,10,12,14,16,-1,-1,-1,-1,-1,-1,-1,-1],"split_conditions":[4.6148853E1,1.0541492E0,1.4322516E0,2.6134645E1,7.803359E0,2.6791666E0,1.0575E1,2.53E2,1.0723376E0,-8.82413E-2,-1.076199E-2,1.1956556E-3,5.6791395E-2,-1.1505029E-1,3.321123E-2,-2.3082718E-2,3.8126987E-1],"split_indices":[71,49,0,65,82,72,72,67,21,0,0,0,0,0,0,0,0],"split_type":[0,0,0,0,0,0,0,0,0,0,0,0,0,0,0,0,0],"sum_hessian":[1.4781205E3,1.4770208E3,1.0997237E0,1.2189401E3,2.5808072E2,5.847391E2,6.34201E2,7.5620316E1,1.824604E2,3.657882E1,5.481603E2,3.743392E2,2.5986176E2,5.9205322E1,1.6414991E1,1.8143513E2,1.0252715E0],"tree_param":{"num_deleted":"0","num_feature":"90","num_nodes":"17","size_leaf_vector":"1"}},{"base_weights":[1.2199426E-2,-1.8992373E-3,6.467101E-1,9.996077E-3,-3.93098E0,-3.6906984E-2,8.5783416E-1,3.6651562E-3,-5.016522E-1,-3.3306222E-2,3.7366324E-3,1.4069042E-1,-9.196548E-3],"categories":[],"categories_nodes":[],"categories_segments":[],"categories_sizes":[],"default_left":[0,0,0,0,0,0,0,0,0,0,0,0,0],"id":34,"left_children":[1,3,-1,5,7,9,11,-1,-1,-1,-1,-1,-1],"loss_changes":[1.7064932E2,7.004327E1,0E0,5.945364E1,4.237542E1,4.4971256E1,6.8879166E1,0E0,0E0,0E0,0E0,0E0,0E0],"parents":[2147483647,0,0,1,1,3,3,4,4,5,5,6,6],"right_children":[2,4,-1,6,8,10,12,-1,-1,-1,-1,-1,-1],"split_conditions":[3.381788E1,3.0456453E1,6.467101E-1,2.0164236E1,4.859E0,4.411736E0,3.22E2,3.6651562E-3,-5.016522E-1,-3.3306222E-2,3.7366324E-3,1.4069042E-1,-9.196548E-3],"split_indices":[80,81,0,72,82,71,68,0,0,0,0,0,0],"split_type":[0,0,0,0,0,0,0,0,0,0,0,0,0],"sum_hessian":[1.4984215E3,1.4968069E3,1.6146828E0,1.4932833E3,3.523468E0,1.4159105E3,7.73728E1,1.6682774E0,1.8551906E0,2.549663E2,1.1609443E3,3.9753548E1,3.7619255E1],"tree_param":{"num_deleted":"0","num_feature":"90","num_nodes":"13","size_leaf_vector":"1"}},{"base_weights":[-1.4955495E-2,-3.747621E-2,1.1424067E0,-9.50301E-2,5.879895E-1,-2.6456073E-2,-5.606801E-1,4.5750192E-1,4.2505565E0,1.2628926E-2,-1.8239109E-2,-1.4185844E-1,-3.3441234E-2,2.7273455E-1,3.0476455E-2,-1.090987E-1,6.3102704E-1],"categories":[],"categories_nodes":[],"categories_segments":[],"categories_sizes":[],"default_left":[0,0,0,0,0,0,0,0,0,0,0,0,0,0,0,0,0],"id":35,"left_children":[1,3,-1,5,7,9,11,13,15,-1,-1,-1,-1,-1,-1,-1,-1],"loss_changes":[4.8119034E2,5.3753006E1,0E0,4.363032E1,5.8193462E1,4.4330315E1,2.9600925E1,2.6407091E1,9.669272E1,0E0,0E0,0E0,0E0,0E0,0E0,0E0,0E0],"parents":[2147483647,0,0,1,1,3,3,4,4,5,5,6,6,7,7,8,8],"right_children":[2,4,-1,6,8,10,12,14,16,-1,-1,-1,-1,-1,-1,-1,-1],"split_conditions":[4.0257637E1,3.9217597E-1,1.1424067E0,8.884973E4,1.6810186E1,6.9927363E0,3.3395834E0,1.6311346E-1,3.705351E2,1.2628926E-2,-1.8239109E-2,-1.4185844E-1,-3.3441234E-2,2.7273455E-1,3.0476455E-2,-1.090987E-1,6.3102704E-1],"split_indices":[71,33,0,77,81,64,71,7,75,0,0,0,0,0,0,0,0],"split_type":[0,0,0,0,0,0,0,0,0,0,0,0,0,0,0,0,0],"sum_hessian":[1.4920215E3,1.4906704E3,1.3510562E0,1.3658373E3,1.2483308E2,1.191437E3,1.7440036E2,1.2162482E2,3.2082589E0,6.224103E2,5.690267E2,1.7156094E1,1.5724426E2,1.9738563E0,1.1965096E2,1.5070833E0,1.7011756E0],"tree_param":{"num_deleted":"0","num_feature":"90","num_nodes":"17","size_leaf_vector":"1"}},{"base_weights":[2.5441365E-2,-1.9532922E-3,1.1420192E0,1.1474475E-2,-4.1196256E0,-5.035035E-2,6.034051E-1,9.37766E-1,-9.338094E-1,2.7398376E-3,-3.4122583E-2,9.5547605E-3,1.7428038E-1,-2.0459762E-1,2.5558245E-1],"categories":[],"categories_nodes":[],"categories_segments":[],"categories_sizes":[],"default_left":[0,0,0,0,0,0,0,0,0,0,0,0,0,0,0],"id":36,"left_children":[1,3,-1,5,7,9,11,13,-1,-1,-1,-1,-1,-1,-1],"loss_changes":[5.8020056E2,8.2119606E1,0E0,5.4212204E1,1.9535208E2,4.2705368E1,1.0653046E2,3.8283005E1,0E0,0E0,0E0,0E0,0E0,0E0,0E0],"parents":[2147483647,0,0,1,1,3,3,4,4,5,5,6,6,7,7],"right_children":[2,4,-1,6,8,10,12,14,-1,-1,-1,-1,-1,-1,-1],"split_conditions":[4.3227573E1,3.6862293E1,1.1420192E0,1.6860416E1,-2.51314E-1,1.0541492E0,2.7021973E1,-2.562686E-2,-9.338094E-1,2.7398376E-3,-3.4122583E-2,9.5547605E-3,1.7428038E-1,-2.0459762E-1,2.5558245E-1],"split_indices":[81,71,0,71,79,49,65,1,0,0,0,0,0,0,0],"split_type":[0,0,0,0,0,0,0,0,0,0,0,0,0,0,0],"sum_hessian":[1.4852185E3,1.4833667E3,1.8518492E0,1.4795391E3,3.827577E0,1.3404493E3,1.3908972E2,2.8171136E0,1.0104634E0,1.0950876E3,2.4536172E2,1.0722057E2,3.1869143E1,1.0531201E0,1.7639935E0],"tree_param":{"num_deleted":"0","num_feature":"90","num_nodes":"15","size_leaf_vector":"1"}},{"base_weights":[2.5969483E-3,-2.2988122E-2,1.2944374E0,-1.24986945E-2,-4.9665837E0,6.679805E-2,-4.277143E-1,-5.128133E-1,-9.117953E-2,3.1936371E-3,1.7135778E-1,-2.9924523E-2,-5.130656E-1],"categories":[],"categories_nodes":[],"categories_segments":[],"categories_sizes":[],"default_left":[0,0,0,0,0,0,0,0,0,0,0,0,0],"id":37,"left_children":[1,3,-1,5,7,9,11,-1,-1,-1,-1,-1,-1],"loss_changes":[6.136587E2,7.6701836E1,0E0,4.869904E1,9.995514E0,6.919012E1,7.377435E1,0E0,0E0,0E0,0E0,0E0,0E0],"parents":[2147483647,0,0,1,1,3,3,4,4,5,5,6,6],"right_children":[2,4,-1,6,8,10,12,-1,-1,-1,-1,-1,-1],"split_conditions":[4.3227573E1,3.381788E1,1.2944374E0,6.872462E-1,2.0213775E-2,1.2162364E1,2.7390417E1,-5.128133E-1,-9.117953E-2,3.1936371E-3,1.7135778E-1,-2.9924523E-2,-5.130656E-1],"split_indices":[81,80,0,14,56,82,71,0,0,0,0,0,0],"split_type":[0,0,0,0,0,0,0,0,0,0,0,0,0],"sum_hessian":[1.4806842E3,1.4793431E3,1.340981E0,1.4772113E3,2.1318505E0,1.24104E3,2.3617133E2,1.0577753E0,1.0740752E0,1.2261779E3,1.4862177E1,2.3512604E2,1.0452864E0],"tree_param":{"num_deleted":"0","num_feature":"90","num_nodes":"13","size_leaf_vector":"1"}},{"base_weights":[1.3695737E-2,-7.2581163E-3,1.1224173E0,1.0237283E-4,-3.591513E-1,-8.056058E-2,4.2204633E-1,-7.0995727E-4,-6.339502E-2,-8.169692E-2,4.5138407E-2],"categories":[],"categories_nodes":[],"categories_segments":[],"categories_sizes":[],"default_left":[0,0,0,0,0,0,0,0,0,0,0],"id":38,"left_children":[1,3,-1,5,-1,7,9,-1,-1,-1,-1],"loss_changes":[4.3973438E2,4.9342674E1,0E0,5.0889076E1,0E0,6.404936E1,4.981815E1,0E0,0E0,0E0,0E0],"parents":[2147483647,0,0,1,1,3,3,5,5,6,6],"right_children":[2,4,-1,6,-1,8,10,-1,-1,-1,-1],"split_conditions":[4.3227573E1,4.0257637E1,1.1224173E0,1.3905833E1,-3.591513E-1,1.3252723E1,8.6E1,-7.0995727E-4,-6.339502E-2,-8.169692E-2,4.5138407E-2],"split_indices":[81,71,0,71,0,71,67,0,0,0,0],"split_type":[0,0,0,0,0,0,0,0,0,0,0],"sum_hessian":[1.4958755E3,1.4946406E3,1.2349154E0,1.4931885E3,1.4521136E0,1.2542272E3,2.3896132E2,1.1404011E3,1.1382604E2,2.087582E1,2.180855E2],"tree_param":{"num_deleted":"0","num_feature":"90","num_nodes":"11","size_leaf_vector":"1"}},{"base_weights":[2.055563E-2,4.5774076E-3,6.7405596E0,-4.0337268E-1,9.783417E-2,1.372295E0,-5.784649E-1,3.1294525E-1,-8.534423E-1,1.0772475E-1,-3.156331E0,-1.5630049E-1,1.0341508E-1,-5.3199977E-2,-2.2255687E-1,-1.5802898E-1,9.817057E-3,2.6874654E-2,-4.493347E-1],"categories":[],"categories_nodes":[],"categories_segments":[],"categories_sizes":[],"default_left":[0,0,0,0,0,0,0,0,0,0,0,0,0,0,0,0,0,0,0],"id":39,"left_children":[1,3,5,7,9,-1,-1,11,13,15,17,-1,-1,-1,-1,-1,-1,-1,-1],"loss_changes":[1.6053784E2,5.683445E1,6.400088E2,8.988124E1,3.9474697E1,0E0,0E0,2.4234656E2,6.028537E1,3.812094E1,3.3827362E1,0E0,0E0,0E0,0E0,0E0,0E0,0E0,0E0],"parents":[2147483647,0,0,1,1,2,2,3,3,4,4,7,7,8,8,9,9,10,10],"right_children":[2,4,6,8,10,-1,-1,12,14,16,18,-1,-1,-1,-1,-1,-1,-1,-1],"split_conditions":[3.381788E1,4.4510417E0,2.9831192E-1,2.8131945E0,1.036302E0,1.372295E0,-5.784649E-1,1.4054295E-1,6.326666E-1,2.7583334E0,5.0095487E0,-1.5630049E-1,1.0341508E-1,-5.3199977E-2,-2.2255687E-1,-1.5802898E-1,9.817057E-3,2.6874654E-2,-4.493347E-1],"split_indices":[80,71,12,71,52,0,0,17,14,72,72,0,0,0,0,0,0,0,0],"split_type":[0,0,0,0,0,0,0,0,0,0,0,0,0,0,0,0,0,0,0],"sum_hessian":[1.494419E3,1.4918724E3,2.5465593E0,2.7696564E2,1.2149067E3,1.3285738E0,1.2179856E0,1.06989265E2,1.6997636E2,1.2121893E3,2.7173853E0,3.1988222E1,7.500104E1,1.5607094E2,1.3905435E1,7.725407E0,1.204464E3,1.480046E0,1.2373394E0],"tree_param":{"num_deleted":"0","num_feature":"90","num_nodes":"19","size_leaf_vector":"1"}},{"base_weights":[4.390161E-2,2.4242606E-2,1.0845582E0,3.64714E-2,-3.1937933E0,4.5161914E-2,-3.1419148E0,-1.5585071E-1,-5.959268E-1,2.1467215E-4,6.5561645E-2,-5.2176166E-1,4.450545E-4,1.2120962E-1,-1.6052517E-1],"categories":[],"categories_nodes":[],"categories_segments":[],"categories_sizes":[],"default_left":[0,0,0,0,0,0,0,0,0,0,0,0,0,0,0],"id":40,"left_children":[1,3,-1,5,7,9,11,13,-1,-1,-1,-1,-1,-1,-1],"loss_changes":[4.080735E2,6.0566833E1,0E0,4.24389E1,7.4160934E1,5.0262535E1,4.460959E1,1.6711832E1,0E0,0E0,0E0,0E0,0E0,0E0,0E0],"parents":[2147483647,0,0,1,1,3,3,4,4,5,5,6,6,7,7],"right_children":[2,4,-1,6,8,10,12,14,-1,-1,-1,-1,-1,-1,-1],"split_conditions":[4.0287727E1,3.0456453E1,1.0845582E0,3.6862293E1,5.932505E0,2.0164236E1,1.2860113E-1,4.4770235E-1,-5.959268E-1,2.1467215E-4,6.5561645E-2,-5.2176166E-1,4.450545E-4,1.2120962E-1,-1.6052517E-1],"split_indices":[80,81,0,71,82,72,33,47,0,0,0,0,0,0,0],"split_type":[0,0,0,0,0,0,0,0,0,0,0,0,0,0,0],"sum_hessian":[1.5363483E3,1.5351168E3,1.2315146E0,1.5302903E3,4.82656E0,1.5271006E3,3.189689E0,3.4209192E0,1.4056407E0,1.448637E3,7.8463524E1,1.0210413E0,2.1686475E0,1.893053E0,1.5278662E0],"tree_param":{"num_deleted":"0","num_feature":"90","num_nodes":"15","size_leaf_vector":"1"}},{"base_weights":[1.1349908E-2,-7.7572516E-3,9.060321E-1,2.1377055E-1,-1.5062325E-1,2.6109962E-2,6.704303E-1,-9.864197E-2,-9.650125E-1,-7.6252385E-3,4.3305535E-2,5.9315722E-2,-2.117738E-1,-1.3697262E-2,1.9621988E-1,-1.23018645E-1,1.7645632E-1],"categories":[],"categories_nodes":[],"categories_segments":[],"categories_sizes":[],"default_left":[0,0,0,0,0,0,0,0,0,0,0,0,0,0,0,0,0],"id":41,"left_children":[1,3,-1,5,7,9,11,13,15,-1,-1,-1,-1,-1,-1,-1,-1],"loss_changes":[3.2442752E2,4.746729E1,0E0,5.037567E1,3.8502235E1,2.6189638E1,4.2304672E1,1.5932167E2,1.0252473E2,0E0,0E0,0E0,0E0,0E0,0E0,0E0,0E0],"parents":[2147483647,0,0,1,1,3,3,4,4,5,5,6,6,7,7,8,8],"right_children":[2,4,-1,6,8,10,12,14,16,-1,-1,-1,-1,-1,-1,-1,-1],"split_conditions":[4.0287727E1,6.095069E-1,9.060321E-1,1.0167084E1,1.3602753E1,2.9315207E1,6.062354E-1,1.8021317E1,2.6915457E1,-7.6252385E-3,4.3305535E-2,5.9315722E-2,-2.117738E-1,-1.3697262E-2,1.9621988E-1,-1.23018645E-1,1.7645632E-1],"split_indices":[80,9,0,71,80,65,3,71,65,0,0,0,0,0,0,0,0],"split_type":[0,0,0,0,0,0,0,0,0,0,0,0,0,0,0,0,0],"sum_hessian":[1.4993265E3,1.4977964E3,1.5301626E0,5.870387E2,9.107576E2,4.1681085E2,1.7022784E2,8.5716705E2,5.359059E1,3.37972E2,7.883886E1,1.6742056E2,2.8072777E0,8.343666E2,2.2800499E1,4.582782E1,7.7627726E0],"tree_param":{"num_deleted":"0","num_feature":"90","num_nodes":"17","size_leaf_vector":"1"}},{"base_weights":[3.2751795E-2,1.1684184E-2,1.1540679E0,2.1408362E-2,-4.0803373E-1,-2.2268721E-1,1.3752739E-1,3.1533282E-2,-3.2933824E-2,1.859297E-2,-2.0051053E-2],"categories":[],"categories_nodes":[],"categories_segments":[],"categories_sizes":[],"default_left":[0,0,0,0,0,0,0,0,0,0,0],"id":42,"left_children":[1,3,-1,5,-1,7,9,-1,-1,-1,-1],"loss_changes":[4.6084872E2,7.562734E1,0E0,4.30359E1,0E0,5.722464E1,3.7948853E1,0E0,0E0,0E0,0E0],"parents":[2147483647,0,0,1,1,3,3,5,5,6,6],"right_children":[2,4,-1,6,-1,8,10,-1,-1,-1,-1],"split_conditions":[4.3227573E1,4.0257637E1,1.1540679E0,5.8670835E0,-4.0803373E-1,2.8131945E0,1.0698627E0,3.1533282E-2,-3.2933824E-2,1.859297E-2,-2.0051053E-2],"split_indices":[81,71,0,71,0,71,49,0,0,0,0],"split_type":[0,0,0,0,0,0,0,0,0,0,0],"sum_hessian":[1.5193641E3,1.5181428E3,1.22134E0,1.5162544E3,1.8883861E0,4.8848495E2,1.0277694E3,1.1430503E2,3.7417993E2,8.2620886E2,2.0156058E2],"tree_param":{"num_deleted":"0","num_feature":"90","num_nodes":"11","size_leaf_vector":"1"}},{"base_weights":[-3.6206373E-3,-2.5835842E-2,9.603683E-1,-2.1933502E-1,1.0654912E-1,-1.3019957E-1,-1.3551561E0,2.0079473E-1,-4.853145E-1,-1.4744974E-2,3.2991466E-1,-2.5784442E-1,-8.408795E-3,1.07075665E-2,8.75508E-2,-3.2629993E-2,-2.8441238E-1],"categories":[],"categories_nodes":[],"categories_segments":[],"categories_sizes":[],"default_left":[0,0,0,0,0,0,0,0,0,0,0,0,0,0,0,0,0],"id":43,"left_children":[1,3,-1,5,7,9,11,13,15,-1,-1,-1,-1,-1,-1,-1,-1],"loss_changes":[4.0442117E2,3.878243E1,0E0,6.2085438E1,5.0248413E1,1.3228333E2,1.0390218E2,4.62955E1,2.7978636E1,0E0,0E0,0E0,0E0,0E0,0E0,0E0,0E0],"parents":[2147483647,0,0,1,1,3,3,4,4,5,5,6,6,7,7,8,8],"right_children":[2,4,-1,6,8,10,12,14,16,-1,-1,-1,-1,-1,-1,-1,-1],"split_conditions":[4.0287727E1,2.6134645E1,9.603683E-1,1.3246938E1,7.034787E-1,1.1020485E1,2.407681E1,1.8588333E1,1.6776836E1,-1.4744974E-2,3.2991466E-1,-2.5784442E-1,-8.408795E-3,1.07075665E-2,8.75508E-2,-3.2629993E-2,-2.8441238E-1],"split_indices":[80,65,0,80,22,80,71,71,80,0,0,0,0,0,0,0,0],"split_type":[0,0,0,0,0,0,0,0,0,0,0,0,0,0,0,0,0],"sum_hessian":[1.5138569E3,1.5120575E3,1.7994567E0,6.139812E2,8.9807635E2,5.703376E2,4.364357E1,7.752844E2,1.2279193E2,5.641187E2,6.218922E0,1.686478E1,2.6778788E1,7.2231635E2,5.296806E1,1.20875595E2,1.9163336E0],"tree_param":{"num_deleted":"0","num_feature":"90","num_nodes":"17","size_leaf_vector":"1"}},{"base_weights":[3.652985E-2,1.50392605E-2,1.057889E0,-2.4271585E-4,1.664164E0,1.4624542E-1,-1.8664168E-1,8.290469E-1,4.181208E0,7.7121537E-3,8.421065E-2,-1.0154319E-1,-1.0328465E-2,1.091547E-1,-8.1306204E-2,3.9303463E-2,4.9724013E-1],"categories":[],"categories_nodes":[],"categories_segments":[],"categories_sizes":[],"default_left":[0,0,0,0,0,0,0,0,0,0,0,0,0,0,0,0,0],"id":44,"left_children":[1,3,-1,5,7,9,11,13,15,-1,-1,-1,-1,-1,-1,-1,-1],"loss_changes":[4.341623E2,3.8589428E1,0E0,4.148039E1,2.608604E1,3.8328163E1,4.147777E1,1.3048789E1,2.1380955E1,0E0,0E0,0E0,0E0,0E0,0E0,0E0,0E0],"parents":[2147483647,0,0,1,1,3,3,4,4,5,5,6,6,7,7,8,8],"right_children":[2,4,-1,6,8,10,12,14,16,-1,-1,-1,-1,-1,-1,-1,-1],"split_conditions":[4.6148853E1,1.2734003E1,1.057889E0,6.862195E0,2.2813501E0,2.0815277E1,2.2720362E1,3.0011335E-1,1.283974E2,7.7121537E-3,8.421065E-2,-1.0154319E-1,-1.0328465E-2,1.091547E-1,-8.1306204E-2,3.9303463E-2,4.9724013E-1],"split_indices":[71,83,0,64,80,72,65,57,75,0,0,0,0,0,0,0,0],"split_type":[0,0,0,0,0,0,0,0,0,0,0,0,0,0,0,0,0],"sum_hessian":[1.5316887E3,1.530196E3,1.4925735E0,1.5171371E3,1.30590315E1,8.4963617E2,6.6750085E2,1.0803851E1,2.2551808E0,8.0639764E2,4.3238544E1,3.2620586E1,6.348803E2,8.576287E0,2.227564E0,1.2426673E0,1.0125134E0],"tree_param":{"num_deleted":"0","num_feature":"90","num_nodes":"17","size_leaf_vector":"1"}},{"base_weights":[2.0529727E-2,6.427147E-3,6.9986707E-1,-1.7394969E-1,1.2930268E-1,-5.675227E-2,-6.722439E-1,-1.7374508E-1,3.1157705E-1,-8.614795E-2,-5.131852E-4,-3.8452744E-2,-2.4749807E-1,-3.8139675E-2,1.5446572E-2,2.146946E-2,1.7332843E-1],"categories":[],"categories_nodes":[],"categories_segments":[],"categories_sizes":[],"default_left":[0,0,0,0,0,0,0,0,0,0,0,0,0,0,0,0,0],"id":45,"left_children":[1,3,-1,5,7,9,11,13,15,-1,-1,-1,-1,-1,-1,-1,-1],"loss_changes":[1.8786076E2,3.3828373E1,0E0,3.6078777E1,5.019986E1,2.5759247E1,5.310188E1,3.8059834E1,4.488331E1,0E0,0E0,0E0,0E0,0E0,0E0,0E0,0E0],"parents":[2147483647,0,0,1,1,3,3,4,4,5,5,6,6,7,7,8,8],"right_children":[2,4,-1,6,8,10,12,14,16,-1,-1,-1,-1,-1,-1,-1,-1],"split_conditions":[4.0287727E1,2.6134645E1,6.9986707E-1,4.8294437E-1,-2.0064691E-2,7.26953E1,1.3246938E1,9.102053E0,1.1874891E1,-8.614795E-2,-5.131852E-4,-3.8452744E-2,-2.4749807E-1,-3.8139675E-2,1.5446572E-2,2.146946E-2,1.7332843E-1],"split_indices":[80,65,0,37,63,66,80,82,82,0,0,0,0,0,0,0,0],"split_type":[0,0,0,0,0,0,0,0,0,0,0,0,0,0,0,0,0],"sum_hessian":[1.5257301E3,1.524268E3,1.462208E0,6.1745325E2,9.068147E2,5.007841E2,1.16669136E2,3.4059363E2,5.6622107E2,2.259053E1,4.7819357E2,1.0922582E2,7.4433103E0,1.8635988E2,1.5423373E2,5.5445105E2,1.1770038E1],"tree_param":{"num_deleted":"0","num_feature":"90","num_nodes":"17","size_leaf_vector":"1"}},{"base_weights":[9.278164E-3,-7.36871E-3,9.62763E-1,3.9372392E-4,-2.7982273E0,5.505393E-1,-3.3572864E-2,-1.3674927E-2,-4.506516E-1,-1.04754835E-1,6.0144443E-2,-1.1636266E-2,1.4027657E-2,-8.251125E-2,7.893435E-2],"categories":[],"categories_nodes":[],"categories_segments":[],"categories_sizes":[],"default_left":[0,0,0,0,0,0,0,0,0,0,0,0,0,0,0],"id":46,"left_children":[1,3,-1,5,7,9,11,13,-1,-1,-1,-1,-1,-1,-1],"loss_changes":[3.0729654E2,3.3222904E1,0E0,2.8613785E1,3.350072E1,3.4317806E1,3.3735733E1,4.2228518E0,0E0,0E0,0E0,0E0,0E0,0E0,0E0],"parents":[2147483647,0,0,1,1,3,3,4,4,5,5,6,6,7,7],"right_children":[2,4,-1,6,8,10,12,14,-1,-1,-1,-1,-1,-1,-1],"split_conditions":[4.0287727E1,1.8175329E0,9.62763E-1,3.7803914E-2,8.0241455E2,7.390339E-1,7.287329E0,6.95649E-1,-4.506516E-1,-1.04754835E-1,6.0144443E-2,-1.1636266E-2,1.4027657E-2,-8.251125E-2,7.893435E-2],"split_indices":[80,45,0,35,84,88,82,12,0,0,0,0,0,0,0],"split_type":[0,0,0,0,0,0,0,0,0,0,0,0,0,0,0],"sum_hessian":[1.5336353E3,1.5325132E3,1.1221098E0,1.5292595E3,3.2535906E0,8.804329E1,1.4412163E3,2.1482906E0,1.1053001E0,8.059208E0,7.998408E1,9.387819E2,5.0243436E2,1.0495253E0,1.0987654E0],"tree_param":{"num_deleted":"0","num_feature":"90","num_nodes":"15","size_leaf_vector":"1"}},{"base_weights":[1.7167605E-2,2.8194473E-3,8.4438574E-1,1.4714378E-2,-3.0527496E0,3.903797E-2,-8.019505E-1,-5.8260113E-1,-2.8046253E-1,-1.05856275E-2,1.3659909E-2,-2.768371E-1,-4.359291E-2,9.1578595E-2,-1.41705E-1],"categories":[],"categories_nodes":[],"categories_segments":[],"categories_sizes":[],"default_left":[0,0,0,0,0,0,0,0,0,0,0,0,0,0,0],"id":47,"left_children":[1,3,-1,5,7,9,11,-1,13,-1,-1,-1,-1,-1,-1],"loss_changes":[2.2829059E2,5.489226E1,0E0,2.9910797E1,6.663184E1,3.3011337E1,2.7874878E1,0E0,1.1754441E1,0E0,0E0,0E0,0E0,0E0,0E0],"parents":[2147483647,0,0,1,1,3,3,4,4,5,5,6,6,8,8],"right_children":[2,4,-1,6,8,10,12,-1,14,-1,-1,-1,-1,-1,-1],"split_conditions":[4.6148853E1,3.0456453E1,8.4438574E-1,1.5992858E0,8.0996124E1,2.6134645E1,-1.2221435E-1,-5.8260113E-1,5.237183E-1,-1.05856275E-2,1.3659909E-2,-2.768371E-1,-4.359291E-2,9.1578595E-2,-1.41705E-1],"split_indices":[71,81,0,37,66,65,13,0,16,0,0,0,0,0,0],"split_type":[0,0,0,0,0,0,0,0,0,0,0,0,0,0,0],"sum_hessian":[1.5090958E3,1.5080427E3,1.053096E0,1.5031863E3,4.856523E0,1.4606348E3,4.255143E1,1.2786894E0,3.5778337E0,6.347755E2,8.258593E2,2.6526556E0,3.9898773E1,1.9478887E0,1.629945E0],"tree_param":{"num_deleted":"0","num_feature":"90","num_nodes":"15","size_leaf_vector":"1"}},{"base_weights":[2.3724776E-2,2.5171955E0,-1.824156E-2,1.2181901E-2,-1.7339039E0,6.0187995E-2,-5.3529215E-1,-8.434553E-2,6.4804787E-3,7.9496605E-3,-6.8639435E-2],"categories":[],"categories_nodes":[],"categories_segments":[],"categories_sizes":[],"default_left":[0,0,0,0,0,0,0,0,0,0,0],"id":48,"left_children":[1,-1,3,5,-1,7,9,-1,-1,-1,-1],"loss_changes":[1.9836407E3,0E0,9.897844E2,3.9476696E1,0E0,3.2120583E1,2.488581E1,0E0,0E0,0E0,0E0],"parents":[2147483647,0,0,2,2,3,3,5,5,6,6],"right_children":[2,-1,4,6,-1,8,10,-1,-1,-1,-1],"split_conditions":[1.9060663E1,2.5171955E0,4.0257637E1,3.6E2,-1.7339039E0,7.26953E1,3.9939246E-1,-8.434553E-2,6.4804787E-3,7.9496605E-3,-6.8639435E-2],"split_indices":[65,0,71,68,0,66,12,0,0,0,0],"split_type":[0,0,0,0,0,0,0,0,0,0,0],"sum_hessian":[1.5019237E3,1.0039407E0,1.5009197E3,1.4998121E3,1.1076186E0,1.3797194E3,1.20092735E2,2.4389032E1,1.3553303E3,4.0713215E1,7.937952E1],"tree_param":{"num_deleted":"0","num_feature":"90","num_nodes":"11","size_leaf_vector":"1"}},{"base_weights":[2.319179E-2,6.784203E-3,5.900305E0,4.9268864E-2,-4.849002E-1,-7.7346673E0,1.9261396E0,-6.4658225E-2,2.6447925E-1,-6.988254E-1,2.2553436E-1,3.203811E-5,-9.6868527E-1,3.921598E-4,-7.8185044E-2,1.4624589E-2,1.00863494E-1,-4.267019E-2,-1.5907235E-1,4.8712917E-2,-1.4616142E-1],"categories":[],"categories_nodes":[],"categories_segments":[],"categories_sizes":[],"default_left":[0,0,0,0,0,0,0,0,0,0,0,0,0,0,0,0,0,0,0,0,0],"id":49,"left_children":[1,3,5,7,9,11,-1,13,15,17,19,-1,-1,-1,-1,-1,-1,-1,-1,-1,-1],"loss_changes":[1.4860521E2,3.2155525E1,1.2495327E3,3.4753952E1,1.8764801E1,1.0854936E2,0E0,5.8866142E1,3.968973E1,1.9067966E1,2.4003874E1,0E0,0E0,0E0,0E0,0E0,0E0,0E0,0E0,0E0,0E0],"parents":[2147483647,0,0,1,1,2,2,3,3,4,4,5,5,7,7,8,8,9,9,10,10],"right_children":[2,4,6,8,10,12,-1,14,16,18,20,-1,-1,-1,-1,-1,-1,-1,-1,-1,-1],"split_conditions":[3.381788E1,3.6E2,1.9496875E0,7.090433E0,2.6364077E-2,7.124143E-2,1.9261396E0,7.0842347E0,1.901125E1,5.6804323E-1,4.5846653E-1,3.203811E-5,-9.6868527E-1,3.921598E-4,-7.8185044E-2,1.4624589E-2,1.00863494E-1,-4.267019E-2,-1.5907235E-1,4.8712917E-2,-1.4616142E-1],"split_indices":[80,68,74,82,23,22,0,82,71,27,12,0,0,0,0,0,0,0,0,0,0],"split_type":[0,0,0,0,0,0,0,0,0,0,0,0,0,0,0,0,0,0,0,0,0],"sum_hessian":[1.5404954E3,1.537205E3,3.2903786E0,1.415773E3,1.21432E2,2.2083E0,1.0820785E0,9.261771E2,4.8959586E2,9.334147E1,2.8090528E1,1.1588421E0,1.049458E0,8.615097E2,6.466744E1,4.5359625E2,3.599961E1,8.3980675E1,9.360791E0,2.4262165E1,3.8283644E0],"tree_param":{"num_deleted":"0","num_feature":"90","num_nodes":"21","size_leaf_vector":"1"}},{"base_weights":[2.2312317E-2,6.941449E-3,6.722377E0,-1.847363E-1,1.1764038E-1,-7.157276E-1,1.7654116E0,1.0982006E0,-2.2625238E-1,8.6127555E-1,2.9359873E-2,1.3239846E-1,-3.840672E-2,-1.4760838E-1,-1.5096252E-2,3.656273E-1,3.8989585E-2,8.181589E-3,-5.718545E-2],"categories":[],"categories_nodes":[],"categories_segments":[],"categories_sizes":[],"default_left":[0,0,0,0,0,0,0,0,0,0,0,0,0,0,0,0,0,0,0],"id":50,"left_children":[1,3,5,7,9,-1,-1,11,13,15,17,-1,-1,-1,-1,-1,-1,-1,-1],"loss_changes":[1.572148E2,3.2369938E1,1.0375781E3,2.9996235E1,6.3457737E1,0E0,0E0,1.6329075E1,3.2588123E1,1.4003676E2,4.7029766E1,0E0,0E0,0E0,0E0,0E0,0E0,0E0,0E0],"parents":[2147483647,0,0,1,1,2,2,3,3,4,4,7,7,8,8,9,9,10,10],"right_children":[2,4,6,8,10,-1,-1,12,14,16,18,-1,-1,-1,-1,-1,-1,-1,-1],"split_conditions":[3.381788E1,2.14E2,1.0018542E3,-1.0347864E-1,2.23E2,-7.157276E-1,1.7654116E0,1.0504272E3,-2.7961178E-2,7.7146126E1,6.3532436E-1,1.3239846E-1,-3.840672E-2,-1.4760838E-1,-1.5096252E-2,3.656273E-1,3.8989585E-2,8.181589E-3,-5.718545E-2],"split_indices":[80,67,84,44,67,0,0,75,17,66,47,0,0,0,0,0,0,0,0],"split_type":[0,0,0,0,0,0,0,0,0,0,0,0,0,0,0,0,0,0,0],"sum_hessian":[1.5260208E3,1.5235266E3,2.4941432E0,5.575123E2,9.660143E2,1.4403696E0,1.0537735E0,1.6677856E1,5.408345E2,1.015815E2,8.644328E2,1.2292699E1,4.385158E0,1.1169003E1,5.2966547E2,8.274726E0,9.330677E1,7.8808374E2,7.634904E1],"tree_param":{"num_deleted":"0","num_feature":"90","num_nodes":"19","size_leaf_vector":"1"}},{"base_weights":[3.6047857E-2,2.542442E-2,6.334147E-1,3.6180627E-2,-2.4803412E0,7.9130806E-2,-5.249203E-1,-5.825541E-1,-8.292627E-2,-2.346547E-3,2.1506201E-2,-6.6132985E-2,3.2881573E-2,-1.4542781E-1,6.67147E-2],"categories":[],"categories_nodes":[],"categories_segments":[],"categories_sizes":[],"default_left":[0,0,0,0,0,0,0,0,0,0,0,0,0,0,0],"id":51,"left_children":[1,3,-1,5,7,9,11,-1,13,-1,-1,-1,-1,-1,-1],"loss_changes":[1.2874606E2,4.156881E1,0E0,3.6994923E1,7.528252E1,2.9331707E1,3.1167747E1,0E0,1.011906E1,0E0,0E0,0E0,0E0,0E0,0E0],"parents":[2147483647,0,0,1,1,3,3,4,4,5,5,6,6,8,8],"right_children":[2,4,-1,6,8,10,12,-1,14,-1,-1,-1,-1,-1,-1],"split_conditions":[4.6148853E1,3.0456453E1,6.334147E-1,3.6E2,8.0996124E1,1.0259722E1,9.512954E-2,-5.825541E-1,2.805466E-1,-2.346547E-3,2.1506201E-2,-6.6132985E-2,3.2881573E-2,-1.4542781E-1,6.67147E-2],"split_indices":[71,81,0,68,66,71,1,0,40,0,0,0,0,0,0],"split_type":[0,0,0,0,0,0,0,0,0,0,0,0,0,0,0],"sum_hessian":[1.5390369E3,1.537967E3,1.0697569E0,1.5323748E3,5.5922856E0,1.4242155E3,1.08159386E2,1.1838473E0,4.4084387E0,9.0666064E2,5.1755475E2,8.187884E1,2.6280544E1,1.1844616E0,3.2239769E0],"tree_param":{"num_deleted":"0","num_feature":"90","num_nodes":"15","size_leaf_vector":"1"}},{"base_weights":[2.8829968E-3,1.834851E0,-2.7343186E-2,-3.7793815E-1,1.6851095E0,-3.0250216E-3,-7.2688265E0,3.5925716E-1,-1.4395337E0,1.8041539E-1,-1.23611026E-1,-1.3729702E0,-4.4338867E-1,1.9932368E-1,-3.6038938E-3,-5.7923492E-2,-2.9364386E-1,1.6979186E-1,1.1743075E-2,-2.2893483E-2,5.956689E-3,1.06417365E-1,-1.1959798E-1],"categories":[],"categories_nodes":[],"categories_segments":[],"categories_sizes":[],"default_left":[0,0,0,0,0,0,0,0,0,0,0,0,0,0,0,0,0,0,0,0,0,0,0],"id":52,"left_children":[1,3,5,7,-1,9,11,13,15,17,19,-1,21,-1,-1,-1,-1,-1,-1,-1,-1,-1,-1],"loss_changes":[8.571E1,1.0769796E3,2.6814685E2,1.8918945E1,0E0,3.3617107E1,3.3652914E2,1.2765507E1,1.3043646E1,3.9051765E1,2.9544958E1,0E0,9.527929E0,0E0,0E0,0E0,0E0,0E0,0E0,0E0,0E0,0E0,0E0],"parents":[2147483647,0,0,1,1,2,2,3,3,5,5,6,6,7,7,8,8,9,9,10,10,12,12],"right_children":[2,4,6,8,-1,10,12,14,16,18,20,-1,22,-1,-1,-1,-1,-1,-1,-1,-1,-1,-1],"split_conditions":[1.9226723E1,4.933415E0,3.8457397E1,7.124231E1,1.6851095E0,6.1068183E-1,7.896152E1,8.818111E-1,1.006054E0,1.2493056E0,7.309395E0,-1.3729702E0,1.3012166E0,1.9932368E-1,-3.6038938E-3,-5.7923492E-2,-2.9364386E-1,1.6979186E-1,1.1743075E-2,-2.2893483E-2,5.956689E-3,1.06417365E-1,-1.1959798E-1],"split_indices":[65,81,72,89,0,9,89,88,88,72,82,0,87,0,0,0,0,0,0,0,0,0,0],"split_type":[0,0,0,0,0,0,0,0,0,0,0,0,0,0,0,0,0,0,0,0,0,0,0],"sum_hessian":[1.545949E3,2.4123964E1,1.521825E3,2.2513552E1,1.6104132E0,1.5177286E3,4.0963793E0,1.3677313E1,8.836239E0,6.017799E2,9.1594867E2,1.0540804E0,3.042299E0,1.3571647E0,1.23201475E1,7.693467E0,1.1427718E0,9.185645E0,5.9259424E2,5.0282822E2,4.1312045E2,1.0337734E0,2.0085256E0],"tree_param":{"num_deleted":"0","num_feature":"90","num_nodes":"23","size_leaf_vector":"1"}},{"base_weights":[-6.45769E-3,1.7061791E0,-3.3660255E-2,-4.9812424E-1,1.7184843E0,-1.0195762E-2,-9.6753865E-1,1.9724292E-1,-1.7877094E0,-2.2290875E-3,-3.696777E0,-6.0236327E-2,7.6928645E-2,-3.9660286E-2,-3.513053E-1,2.7295558E-3,-3.7453495E-2,-4.6940684E-1,-7.103513E-4],"categories":[],"categories_nodes":[],"categories_segments":[],"categories_sizes":[],"default_left":[0,0,0,0,0,0,0,0,0,0,0,0,0,0,0,0,0,0,0],"id":53,"left_children":[1,3,5,7,-1,9,-1,11,13,15,17,-1,-1,-1,-1,-1,-1,-1,-1],"loss_changes":[7.33334E1,1.0834878E3,4.3830304E2,2.1085176E1,0E0,4.5433537E1,0E0,1.2287636E1,2.5401564E1,2.6180616E1,2.665287E1,0E0,0E0,0E0,0E0,0E0,0E0,0E0,0E0],"parents":[2147483647,0,0,1,1,2,2,3,3,5,5,7,7,8,8,9,9,10,10],"right_children":[2,4,6,8,-1,10,-1,12,14,16,18,-1,-1,-1,-1,-1,-1,-1,-1],"split_conditions":[1.9226723E1,5.171479E0,3.492969E1,7.124231E1,1.7184843E0,3.381788E1,-9.6753865E-1,5.795233E0,3.7285239E-1,1.1434398E0,1.9362678E-1,-6.0236327E-2,7.6928645E-2,-3.9660286E-2,-3.513053E-1,2.7295558E-3,-3.7453495E-2,-4.6940684E-1,-7.103513E-4],"split_indices":[65,80,81,89,0,80,0,64,27,59,11,0,0,0,0,0,0,0,0],"split_type":[0,0,0,0,0,0,0,0,0,0,0,0,0,0,0,0,0,0,0],"sum_hessian":[1.5718468E3,2.3610966E1,1.5482358E3,2.2120054E1,1.4909102E0,1.5462284E3,2.0074248E0,1.4921284E1,7.198771E0,1.5438926E3,2.3357358E0,6.65868E0,8.262604E0,5.606926E0,1.5918454E0,1.4330271E3,1.1086549E2,1.0982403E0,1.2374955E0],"tree_param":{"num_deleted":"0","num_feature":"90","num_nodes":"19","size_leaf_vector":"1"}},{"base_weights":[2.0900618E-2,6.2354184E-3,8.222709E-1,3.0904806E-1,-6.1850246E-2,2.1471193E-1,2.8268673E0,-5.344694E-2,-3.6769548E-1,6.699737E-2,3.933225E-3,6.87991E-1,2.3257788E-2,-2.5628623E-1,-3.467698E-3],"categories":[],"categories_nodes":[],"categories_segments":[],"categories_sizes":[],"default_left":[0,0,0,0,0,0,0,0,0,0,0,0,0,0,0],"id":54,"left_children":[1,3,-1,5,7,9,11,13,-1,-1,-1,-1,-1,-1,-1],"loss_changes":[2.3062997E2,3.1612808E1,0E0,6.624766E1,4.7457108E1,2.8040375E1,1.4512448E2,3.965417E1,0E0,0E0,0E0,0E0,0E0,0E0,0E0],"parents":[2147483647,0,0,1,1,3,3,4,4,5,5,6,6,7,7],"right_children":[2,4,-1,6,8,10,12,14,-1,-1,-1,-1,-1,-1,-1],"split_conditions":[4.476375E1,2.7613294E-1,8.222709E-1,1.8021317E1,4.0257637E1,2.85E2,7.582884E-2,3.4964356E0,-3.6769548E-1,6.699737E-2,3.933225E-3,6.87991E-1,2.3257788E-2,-2.5628623E-1,-3.467698E-3],"split_indices":[72,14,0,71,71,68,60,82,0,0,0,0,0,0,0],"split_type":[0,0,0,0,0,0,0,0,0,0,0,0,0,0,0],"sum_hessian":[1.5325837E3,1.5313949E3,1.1888384E0,2.8046793E2,1.250927E3,2.7138513E2,9.082814E0,1.2496229E3,1.3040855E0,5.613963E1,2.1524548E2,2.0425143E0,7.0402994E0,2.9835172E0,1.2466394E3],"tree_param":{"num_deleted":"0","num_feature":"90","num_nodes":"15","size_leaf_vector":"1"}},{"base_weights":[4.903462E-2,3.9150953E-2,5.402371E-1,4.6700124E-2,-3.4502757E-1,-7.057797E-2,2.219123E-1,-1.8358835E-3,-7.9341E-2,-1.8045111E-1,2.0936277E-2],"categories":[],"categories_nodes":[],"categories_segments":[],"categories_sizes":[],"default_left":[0,0,0,0,0,0,0,0,0,0,0],"id":55,"left_children":[1,3,-1,5,-1,7,9,-1,-1,-1,-1],"loss_changes":[1.0372494E2,5.1720444E1,0E0,3.2202843E1,0E0,4.1180126E1,6.2532017E1,0E0,0E0,0E0,0E0],"parents":[2147483647,0,0,1,1,3,3,5,5,6,6],"right_children":[2,4,-1,6,-1,8,10,-1,-1,-1,-1],"split_conditions":[4.0287727E1,3.492969E1,5.402371E-1,1.0459964E1,-3.4502757E-1,1.3252723E1,7.286193E1,-1.8358835E-3,-7.9341E-2,-1.8045111E-1,2.0936277E-2],"split_indices":[80,81,0,72,0,71,66,0,0,0,0],"split_type":[0,0,0,0,0,0,0,0,0,0,0],"sum_hessian":[1.5684272E3,1.5671227E3,1.3045838E0,1.5653966E3,1.7261387E0,9.380865E2,6.2731006E2,8.9294226E2,4.5144253E1,9.035539E0,6.1827454E2],"tree_param":{"num_deleted":"0","num_feature":"90","num_nodes":"11","size_leaf_vector":"1"}},{"base_weights":[1.3672851E-2,-3.2797838E-3,1.0121089E0,7.6533905E-3,-5.044291E0,7.4948005E-2,-2.9581428E-1,1.4602007E-1,-7.959857E-1,5.1218844E-3,1.7105283E-1,-3.1517643E-1,-2.050428E-2],"categories":[],"categories_nodes":[],"categories_segments":[],"categories_sizes":[],"default_left":[0,0,0,0,0,0,0,0,0,0,0,0,0],"id":56,"left_children":[1,3,-1,5,7,9,11,-1,-1,-1,-1,-1,-1],"loss_changes":[3.3139554E2,8.5221054E1,0E0,3.1537298E1,1.309285E2,2.835105E1,3.9345947E1,0E0,0E0,0E0,0E0,0E0,0E0],"parents":[2147483647,0,0,1,1,3,3,4,4,5,5,6,6],"right_children":[2,4,-1,6,8,10,12,-1,-1,-1,-1,-1,-1],"split_conditions":[4.3227573E1,4.0257637E1,1.0121089E0,1.0450734E0,2.3727114E-1,1.2734003E1,-5.152101E-2,1.4602007E-1,-7.959857E-1,5.1218844E-3,1.7105283E-1,-3.1517643E-1,-2.050428E-2],"split_indices":[81,71,0,49,22,83,42,0,0,0,0,0,0],"split_type":[0,0,0,0,0,0,0,0,0,0,0,0,0],"sum_hessian":[1.5456333E3,1.544561E3,1.0721872E0,1.5422147E3,2.3463435E0,1.2629138E3,2.7930087E2,1.2390869E0,1.1072567E0,1.2572877E3,5.6261497E0,1.9371189E0,2.7736377E2],"tree_param":{"num_deleted":"0","num_feature":"90","num_nodes":"13","size_leaf_vector":"1"}},{"base_weights":[7.7835615E-3,-1.8073268E-2,1.4699463E0,-7.670533E-3,-6.2103325E-1,2.9548523E-3,-2.0834281E0,-1.7217483E-3,8.432368E-2,4.4215098E-2,-2.840919E-1],"categories":[],"categories_nodes":[],"categories_segments":[],"categories_sizes":[],"default_left":[0,0,0,0,0,0,0,0,0,0,0],"id":57,"left_children":[1,3,-1,5,-1,7,9,-1,-1,-1,-1],"loss_changes":[7.3401324E2,1.2431597E2,0E0,3.403091E1,0E0,3.9534966E1,3.2365273E1,0E0,0E0,0E0,0E0],"parents":[2147483647,0,0,1,1,3,3,5,5,6,6],"right_children":[2,4,-1,6,-1,8,10,-1,-1,-1,-1],"split_conditions":[4.8902405E1,4.6148853E1,1.4699463E0,1.0196371E0,-6.2103325E-1,1.2162364E1,-6.3976347E-3,-1.7217483E-3,8.432368E-2,4.4215098E-2,-2.840919E-1],"split_indices":[80,71,0,14,0,82,8,0,0,0,0],"split_type":[0,0,0,0,0,0,0,0,0,0,0],"sum_hessian":[1.543915E3,1.5427421E3,1.1728905E0,1.5416724E3,1.0697566E0,1.5348146E3,6.85783E0,1.500844E3,3.397055E1,2.6756442E0,4.1821856E0],"tree_param":{"num_deleted":"0","num_feature":"90","num_nodes":"11","size_leaf_vector":"1"}},{"base_weights":[1.1435319E-2,1.6468712E1,-2.1717913E-2,2.7217123E-1,1.6878656E0,-8.6708524E-4,-1.1931205E0,1.0793489E-1,-1.6511625E-1,-9.224436E-3,1.990188E-2,-1.1442287E-2,-3.3975008E-1],"categories":[],"categories_nodes":[],"categories_segments":[],"categories_sizes":[],"default_left":[0,0,0,0,0,0,0,0,0,0,0,0,0],"id":58,"left_children":[1,3,5,-1,-1,7,-1,9,11,-1,-1,-1,-1],"loss_changes":[8.457984E2,1.16751465E2,4.8048386E2,0E0,0E0,2.7650248E1,0E0,2.9291416E1,5.4976295E1,0E0,0E0,0E0,0E0],"parents":[2147483647,0,0,1,1,2,2,5,5,7,7,8,8],"right_children":[2,4,6,-1,-1,8,-1,10,12,-1,-1,-1,-1],"split_conditions":[1.9060663E1,2.2079825E-1,4.0287727E1,2.7217123E-1,1.6878656E0,5.121626E-1,-1.1931205E0,2.14E2,4.2523706E-1,-9.224436E-3,1.990188E-2,-1.1442287E-2,-3.3975008E-1],"split_indices":[65,47,80,0,0,7,0,67,36,0,0,0,0],"split_type":[0,0,0,0,0,0,0,0,0,0,0,0,0],"sum_hessian":[1.5485277E3,2.1165695E0,1.5464111E3,1.0075982E0,1.1089714E0,1.5452477E3,1.163457E0,9.297231E2,6.155246E2,3.5971982E2,5.7000323E2,6.132412E2,2.283396E0],"tree_param":{"num_deleted":"0","num_feature":"90","num_nodes":"13","size_leaf_vector":"1"}},{"base_weights":[-2.1078354E-2,1.294087E0,-5.2176602E-2,-2.5936926E-2,-9.456693E0,4.5807868E-1,-6.601215E-2,-1.5695539E0,-3.8022406E-2,-1.0296966E-1,9.938916E-2,-6.369383E-2,1.4042101E-3],"categories":[],"categories_nodes":[],"categories_segments":[],"categories_sizes":[],"default_left":[0,0,0,0,0,0,0,0,0,0,0,0,0],"id":59,"left_children":[1,-1,3,5,7,9,11,-1,-1,-1,-1,-1,-1],"loss_changes":[7.874879E2,0E0,3.846501E2,3.021953E1,3.865334E2,1.6466599E2,8.776984E1,0E0,0E0,0E0,0E0,0E0,0E0],"parents":[2147483647,0,0,2,2,3,3,4,4,5,5,6,6],"right_children":[2,-1,4,6,8,10,12,-1,-1,-1,-1,-1,-1],"split_conditions":[1.9060663E1,1.294087E0,4.0257637E1,2.8131945E0,9.958939E-1,1.4054295E-1,4.271076E0,-1.5695539E0,-3.8022406E-2,-1.0296966E-1,9.938916E-2,-6.369383E-2,1.4042101E-3],"split_indices":[65,0,71,71,25,17,71,0,0,0,0,0,0],"split_type":[0,0,0,0,0,0,0,0,0,0,0,0,0],"sum_hessian":[1.5607198E3,1.9959415E0,1.558724E3,1.555387E3,3.3369498E0,1.18136925E2,1.4372501E3,1.0098397E0,2.3271103E0,3.6430447E1,8.1706474E1,1.4672131E2,1.2905288E3],"tree_param":{"num_deleted":"0","num_feature":"90","num_nodes":"13","size_leaf_vector":"1"}},{"base_weights":[1.9223668E-3,-8.333224E-3,5.79615E-1,-1.9765155E-4,-4.167929E-1,4.2174414E-1,-3.5487555E-2,2.5813695E-2,1.902368E-1,-2.1890946E-2,5.270025E-3],"categories":[],"categories_nodes":[],"categories_segments":[],"categories_sizes":[],"default_left":[0,0,0,0,0,0,0,0,0,0,0],"id":60,"left_children":[1,3,-1,5,-1,7,9,-1,-1,-1,-1],"loss_changes":[1.1788729E2,6.706953E1,0E0,2.359299E1,0E0,2.2933672E1,3.5313805E1,0E0,0E0,0E0,0E0],"parents":[2147483647,0,0,1,1,3,3,5,5,6,6],"right_children":[2,4,-1,6,-1,8,10,-1,-1,-1,-1],"split_conditions":[4.476375E1,4.0257637E1,5.79615E-1,4.454606E0,-4.167929E-1,4.9208498E-1,5.8670835E0,2.5813695E-2,1.902368E-1,-2.1890946E-2,5.270025E-3],"split_indices":[72,71,0,64,0,30,71,0,0,0,0],"split_type":[0,0,0,0,0,0,0,0,0,0,0],"sum_hessian":[1.5851688E3,1.583925E3,1.2437973E0,1.5824501E3,1.4750062E0,1.2129092E2,1.4611592E3,1.1655302E2,4.7379036E0,4.3572818E2,1.0254309E3],"tree_param":{"num_deleted":"0","num_feature":"90","num_nodes":"11","size_leaf_vector":"1"}},{"base_weights":[-2.0490045E-2,-3.4547072E-2,7.773925E-1,-2.6532214E-2,-4.1377604E-1,-4.349443E-2,9.6432215E-1,-4.510067E-3,8.676939E-2,2.0721355E-1,3.3380687E-2],"categories":[],"categories_nodes":[],"categories_segments":[],"categories_sizes":[],"default_left":[0,0,0,0,0,0,0,0,0,0,0],"id":61,"left_children":[1,3,-1,5,-1,7,9,-1,-1,-1,-1],"loss_changes":[2.1718793E2,6.5042564E1,0E0,2.662126E1,0E0,2.2669163E1,2.2631525E1,0E0,0E0,0E0,0E0],"parents":[2147483647,0,0,1,1,3,3,5,5,6,6],"right_children":[2,4,-1,6,-1,8,10,-1,-1,-1,-1],"split_conditions":[4.3227573E1,3.492969E1,7.773925E-1,7.6820815E-1,-4.1377604E-1,1.2734003E1,-2.6289463E0,-4.510067E-3,8.676939E-2,2.0721355E-1,3.3380687E-2],"split_indices":[81,81,0,48,0,83,76,0,0,0,0],"split_type":[0,0,0,0,0,0,0,0,0,0,0],"sum_hessian":[1.5831825E3,1.5818955E3,1.2870744E0,1.580435E3,1.4603513E0,1.5547754E3,2.565975E1,1.5381619E3,1.6613564E1,5.5199723E0,2.0139778E1],"tree_param":{"num_deleted":"0","num_feature":"90","num_nodes":"11","size_leaf_vector":"1"}},{"base_weights":[-2.7792563E-3,1.694181E0,-3.731897E-2,-1.5331674E-2,-1.3165718E0,-9.877278E-3,-2.66766E-1,-1.6534869E-2,6.1206208E-3],"categories":[],"categories_nodes":[],"categories_segments":[],"categories_sizes":[],"default_left":[0,0,0,0,0,0,0,0,0],"id":62,"left_children":[1,-1,3,5,-1,7,-1,-1,-1],"loss_changes":[1.140731E3,0E0,5.617629E2,2.813089E1,0E0,2.643721E1,0E0,0E0,0E0],"parents":[2147483647,0,0,2,2,3,3,5,5],"right_children":[2,-1,4,6,-1,8,-1,-1,-1],"split_conditions":[1.9060663E1,1.694181E0,4.6148853E1,3.492969E1,-1.3165718E0,2.544901E1,-2.66766E-1,-1.6534869E-2,6.1206208E-3],"split_indices":[65,0,71,81,0,65,0,0,0],"split_type":[0,0,0,0,0,0,0,0,0],"sum_hessian":[1.557248E3,1.5387615E0,1.5557094E3,1.5546285E3,1.0808225E0,1.5530793E3,1.5491449E0,4.7332462E2,1.0797548E3],"tree_param":{"num_deleted":"0","num_feature":"90","num_nodes":"9","size_leaf_vector":"1"}},{"base_weights":[2.6009832E-2,1.2585185E0,-3.9379294E-3,1.7517298E-2,-1.0050727E0,2.446047E-2,-2.9601106E-1,-2.3217057E-3,2.6003847E-2],"categories":[],"categories_nodes":[],"categories_segments":[],"categories_sizes":[],"default_left":[0,0,0,0,0,0,0,0,0],"id":63,"left_children":[1,-1,3,5,-1,7,-1,-1,-1],"loss_changes":[7.283138E2,0E0,4.1692084E2,3.9964195E1,0E0,2.4812525E1,0E0,0E0,0E0],"parents":[2147483647,0,0,2,2,3,3,5,5],"right_children":[2,-1,4,6,-1,8,-1,-1,-1],"split_conditions":[1.9060663E1,1.2585185E0,4.476375E1,4.0257637E1,-1.0050727E0,9.15514E0,-2.9601106E-1,-2.3217057E-3,2.6003847E-2],"split_indices":[65,0,72,71,0,82,0,0,0],"split_type":[0,0,0,0,0,0,0,0,0],"sum_hessian":[1.5473398E3,1.9470615E0,1.5453927E3,1.5437542E3,1.6385757E0,1.5418679E3,1.8862045E0,1.3097375E3,2.3213045E2],"tree_param":{"num_deleted":"0","num_feature":"90","num_nodes":"9","size_leaf_vector":"1"}},{"base_weights":[9.977164E-3,1.8875107E0,-2.2697827E-2,-4.50324E-3,-1.1465155E0,2.340251E-3,-3.3607788E0,8.648494E-3,-1.06794285E-2,-3.8455898E-1,-4.015324E-3],"categories":[],"categories_nodes":[],"categories_segments":[],"categories_sizes":[],"default_left":[0,0,0,0,0,0,0,0,0,0,0],"id":64,"left_children":[1,-1,3,5,-1,7,9,-1,-1,-1,-1],"loss_changes":[1.2349673E3,0E0,4.166604E2,3.6749695E1,0E0,2.296345E1,1.534671E1,0E0,0E0,0E0,0E0],"parents":[2147483647,0,0,2,2,3,3,5,5,6,6],"right_children":[2,-1,4,6,-1,8,10,-1,-1,-1,-1],"split_conditions":[1.9060663E1,1.8875107E0,4.0287727E1,4.476375E1,-1.1465155E0,6.862195E0,6.3972336E-1,8.648494E-3,-1.06794285E-2,-3.8455898E-1,-4.015324E-3],"split_indices":[65,0,80,72,0,64,53,0,0,0,0],"split_type":[0,0,0,0,0,0,0,0,0,0,0],"sum_hessian":[1.6009017E3,1.2172905E0,1.5996844E3,1.598652E3,1.0324848E0,1.5963962E3,2.2557707E0,8.976492E2,6.98747E2,1.2553673E0,1.0004034E0],"tree_param":{"num_deleted":"0","num_feature":"90","num_nodes":"11","size_leaf_vector":"1"}}]},"name":"gbtree"},"learner_model_param":{"base_score":"[2.1610136E0]","boost_from_average":"1","num_class":"0","num_feature":"90","num_target":"1"},"objective":{"name":"reg:pseudohubererror","pseudo_huber_param":{"huber_slope":"1"}}},"version":[3,3,0]}